/* Generated by Edge Impulse
 *
 * Permission is hereby granted, free of charge, to any person obtaining a copy
 * of this software and associated documentation files (the "Software"), to deal
 * in the Software without restriction, including without limitation the rights
 * to use, copy, modify, merge, publish, distribute, sublicense, and/or sell
 * copies of the Software, and to permit persons to whom the Software is
 * furnished to do so, subject to the following conditions:
 *
 * The above copyright notice and this permission notice shall be included in
 * all copies or substantial portions of the Software.
 *
 * THE SOFTWARE IS PROVIDED "AS IS", WITHOUT WARRANTY OF ANY KIND, EXPRESS OR
 * IMPLIED, INCLUDING BUT NOT LIMITED TO THE WARRANTIES OF MERCHANTABILITY,
 * FITNESS FOR A PARTICULAR PURPOSE AND NONINFRINGEMENT. IN NO EVENT SHALL THE
 * AUTHORS OR COPYRIGHT HOLDERS BE LIABLE FOR ANY CLAIM, DAMAGES OR OTHER
 * LIABILITY, WHETHER IN AN ACTION OF CONTRACT, TORT OR OTHERWISE, ARISING FROM,
 * OUT OF OR IN CONNECTION WITH THE SOFTWARE OR THE USE OR OTHER DEALINGS IN THE
 * SOFTWARE.
 */
// Generated on: 01.08.2023 13:15:12

#include <stdio.h>
#include <stdlib.h>
#include "edge-impulse-sdk/tensorflow/lite/c/builtin_op_data.h"
#include "edge-impulse-sdk/tensorflow/lite/c/common.h"
#include "edge-impulse-sdk/tensorflow/lite/micro/micro_mutable_op_resolver.h"
#include "edge-impulse-sdk/porting/ei_classifier_porting.h"

#if EI_CLASSIFIER_PRINT_STATE
#if defined(__cplusplus) && EI_C_LINKAGE == 1
extern "C" {
    extern void ei_printf(const char *format, ...);
}
#else
extern void ei_printf(const char *format, ...);
#endif
#endif

#if defined __GNUC__
#define ALIGN(X) __attribute__((aligned(X)))
#elif defined _MSC_VER
#define ALIGN(X) __declspec(align(X))
#elif defined __TASKING__
#define ALIGN(X) __align(X)
#endif

#ifndef EI_MAX_SCRATCH_BUFFER_COUNT
#define EI_MAX_SCRATCH_BUFFER_COUNT 4
#endif // EI_MAX_SCRATCH_BUFFER_COUNT

#ifndef EI_MAX_OVERFLOW_BUFFER_COUNT
#define EI_MAX_OVERFLOW_BUFFER_COUNT 10
#endif // EI_MAX_OVERFLOW_BUFFER_COUNT

using namespace tflite;
using namespace tflite::ops;
using namespace tflite::ops::micro;

namespace {

#if defined(EI_CLASSIFIER_ALLOCATION_STATIC_HIMAX) || defined(EI_CLASSIFIER_ALLOCATION_STATIC_HIMAX_GNU)
constexpr int kTensorArenaSize = 793536;
#else
constexpr int kTensorArenaSize = 792512;
#endif

#if defined(EI_CLASSIFIER_ALLOCATION_STATIC)
uint8_t tensor_arena[kTensorArenaSize] ALIGN(16);
#elif defined(EI_CLASSIFIER_ALLOCATION_STATIC_HIMAX)
#pragma Bss(".tensor_arena")
uint8_t tensor_arena[kTensorArenaSize] ALIGN(16);
#pragma Bss()
#elif defined(EI_CLASSIFIER_ALLOCATION_STATIC_HIMAX_GNU)
uint8_t tensor_arena[kTensorArenaSize] ALIGN(16) __attribute__((section(".tensor_arena")));
#else
#define EI_CLASSIFIER_ALLOCATION_HEAP 1
uint8_t* tensor_arena = NULL;
#endif

static uint8_t* tensor_boundary;
static uint8_t* current_location;

template <int SZ, class T> struct TfArray {
  int sz; T elem[SZ];
};
enum used_operators_e {
  OP_CONV_2D, OP_DEPTHWISE_CONV_2D, OP_SOFTMAX,  OP_LAST
};
struct TensorInfo_t { // subset of TfLiteTensor used for initialization from constant memory
  TfLiteAllocationType allocation_type;
  void* data;
  TfLiteIntArray* dims;
  size_t bytes;
};
struct NodeInfo_t { // subset of TfLiteNode used for initialization from constant memory
  struct TfLiteIntArray* inputs;
  struct TfLiteIntArray* outputs;
  void* builtin_data;
  used_operators_e used_op_index;
};

typedef struct {
  TfLiteTensor tensor;
  int16_t index;
} TfLiteTensorWithIndex;

typedef struct {
  TfLiteEvalTensor tensor;
  int16_t index;
} TfLiteEvalTensorWithIndex;

TfLiteContext ctx{};
static const int MAX_TFL_TENSOR_COUNT = 4;
static TfLiteTensorWithIndex tflTensors[MAX_TFL_TENSOR_COUNT];
static const int MAX_TFL_EVAL_COUNT = 4;
static TfLiteEvalTensorWithIndex tflEvalTensors[MAX_TFL_EVAL_COUNT];
TfLiteRegistration registrations[OP_LAST];
TfLiteNode tflNodes[11];

const TfArray<4, int> tensor_dimension0 = { 4, { 1,128,128,3 } };
const ALIGN(16) float tensor_data1[32] = { -0.013674287125468254, 0.0050037889741361141, -0.0066862059757113457, -0.0019977639894932508, -0.015027653425931931, 0.0031660785898566246, -0.0071245627477765083, 0.024296337738633156, 0.014566046185791492, 0.0082738427445292473, -0.0075133773498237133, 0.0058628423139452934, 0.024512363597750664, -0.015479722991585732, 0.0063970973715186119, 0.0051012579351663589, 0.026930201798677444, 0.013808938674628735, 0.0030315378680825233, -0.016510358080267906, -0.015691492706537247, -0.001219915458932519, 0.0083311730995774269, -0.010199683718383312, 0.0061318059451878071, 0.025304790586233139, 0.028861250728368759, -0.0031770630739629269, 0.18401709198951721, 0.0053294049575924873, 0.01195842120796442, 0.00057347363326698542, };
const TfArray<1, int> tensor_dimension1 = { 1, { 32 } };
const ALIGN(16) float tensor_data2[16] = { -0.00247188750654459, -0.13757368922233582, -0.30114823579788208, 0.37121915817260742, 0.11630861461162567, 0.16200149059295654, 0.054420549422502518, -0.0025641485117375851, -0.17718760669231415, -0.18340790271759033, 0.019528334960341454, 0.03783034160733223, 0.19937923550605774, -0.00058265961706638336, 0.13606514036655426, -0.0041598035022616386, };
const TfArray<1, int> tensor_dimension2 = { 1, { 16 } };
const ALIGN(16) float tensor_data3[32] = { 0.063454583287239075, 0.065711602568626404, 0.078419923782348633, 0.13288247585296631, -0.0028629284352064133, 0.00035252794623374939, -0.47726777195930481, 0.037561099976301193, -0.089461423456668854, 0.013602014631032944, 0.033020373433828354, 0.20893540978431702, -0.26141628623008728, 0.0016932543367147446, 0.0023510977625846863, 0.28816220164299011, 0.030276328325271606, -0.18713456392288208, 0.042606234550476074, 0.15456570684909821, 0.014458514750003815, 0.05145561695098877, -0.18380005657672882, -0.18787817656993866, 0.12012120336294174, 0.10735980421304703, -0.049753621220588684, -0.0098258741199970245, -0.16980460286140442, 0.23638208210468292, 0.1189064085483551, -0.16982176899909973, };
const TfArray<1, int> tensor_dimension3 = { 1, { 32 } };
const ALIGN(16) float tensor_data4[64] = { 0.5431753396987915, 0.21615657210350037, -0.46371334791183472, 0.15813194215297699, 0.29998600482940674, -0.066206447780132294, 0.42739629745483398, -0.0010430561378598213, -0.19623740017414093, 0.61290258169174194, 0.057226464152336121, 0.11175889521837234, -0.39883098006248474, 0.099258437752723694, 0.46236750483512878, -0.56581968069076538, 0.43892744183540344, 0.32535740733146667, -0.088940173387527466, -0.72729951143264771, 0.23757791519165039, 0.052088066935539246, 0.52151483297348022, 0.36637505888938904, -0.077468819916248322, 0.58817917108535767, 0.13348032534122467, 0.48113402724266052, 0.2372620701789856, -0.1778453141450882, 0.16801786422729492, 0.12007404863834381, -0.013073548674583435, 0.3784368634223938, -0.23580105602741241, 0.15084688365459442, 0.38456982374191284, -0.17181658744812012, -0.26206445693969727, 0.31932109594345093, 0.045309897512197495, 0.41561168432235718, 0.17230775952339172, 0.22396484017372131, -0.42658546566963196, 0.029322467744350433, 0.36717429757118225, -0.12767145037651062, 0.093081511557102203, 0.064494818449020386, 0.23865495622158051, -0.026509184390306473, 0.26983606815338135, 0.29235386848449707, 0.42312529683113098, 0.038949981331825256, 0.083324141800403595, 0.031499050557613373, 0.21387508511543274, 0.43898490071296692, 0.39561447501182556, -0.17926430702209473, 0.62848198413848877, 0.52846527099609375, };
const TfArray<1, int> tensor_dimension4 = { 1, { 64 } };
const ALIGN(16) float tensor_data5[64] = { 0.70365768671035767, 1.0406374931335449, 1.083748459815979, 0.43214705586433411, 2.2892444133758545, 0.49857231974601746, 0.3031269907951355, 0.015313504263758659, 1.851237416267395, -0.5656781792640686, 1.0550885200500488, 1.1112878322601318, 1.3112556934356689, 0.22613139450550079, -0.19524902105331421, -0.15976041555404663, 0.12049288302659988, 0.62222778797149658, 0.63137650489807129, 0.47154757380485535, 0.52735012769699097, 0.56636112928390503, 0.36581650376319885, 1.0491864681243896, 0.65431588888168335, 0.44095218181610107, 0.54980027675628662, 0.41004675626754761, 0.64095336198806763, 0.6640898585319519, 1.5943136215209961, 0.065790459513664246, 1.6335352659225464, 0.72172170877456665, 0.53766679763793945, 0.40450751781463623, 0.33202183246612549, -0.51668077707290649, 1.0793317556381226, -0.097211584448814392, 0.2052803635597229, 1.250407338142395, 0.20542627573013306, 0.70176488161087036, 1.3768837451934814, 0.402984619140625, 1.6073297262191772, -0.73853927850723267, 1.1622552871704102, 0.74720102548599243, -1.3260083198547363, 0.88634008169174194, 0.11467732489109039, 0.92788237333297729, 1.8482217788696289, -2.1674430370330811, 1.6804133653640747, -0.0076388213783502579, 1.30792236328125, -0.19773276150226593, 0.081034421920776367, -0.027616426348686218, 0.13540630042552948, -0.5110015869140625, };
const TfArray<1, int> tensor_dimension5 = { 1, { 64 } };
const ALIGN(16) float tensor_data6[128] = { 0.23057644069194794, 0.16191582381725311, 0.44836029410362244, -0.35714614391326904, -0.27609282732009888, 0.51840746402740479, 0.20442402362823486, -1.0545797348022461, 0.3884105384349823, 0.25850749015808105, -0.31930786371231079, 0.24632811546325684, -0.12483516335487366, -0.29178395867347717, 0.43428856134414673, -0.51556020975112915, 0.31508919596672058, -0.21720997989177704, 0.37245568633079529, 0.30246132612228394, -0.45381546020507812, 0.0022487789392471313, 0.051410362124443054, -0.18752884864807129, 0.20755162835121155, 0.6926114559173584, -0.68319559097290039, 0.69351440668106079, -0.1818731278181076, -0.75163853168487549, -0.43491023778915405, 0.41539919376373291, -0.002498263493180275, 0.12621569633483887, -0.070133425295352936, 0.18480405211448669, 0.13516128063201904, 0.22416271269321442, 0.16322958469390869, -0.032299168407917023, -0.034862339496612549, 0.097304023802280426, 0.45538544654846191, -0.17703631520271301, -0.22406889498233795, -0.06630522757768631, 0.31102690100669861, 0.3318411111831665, 0.37295886874198914, -0.24384152889251709, -0.27745047211647034, -0.2185104638338089, -0.16753368079662323, -0.31065082550048828, 0.66775822639465332, -0.2184302806854248, -0.48181837797164917, 0.1570274829864502, 0.025104139000177383, -0.26758313179016113, 0.36960339546203613, -0.083773724734783173, 0.45466426014900208, 0.87695217132568359, -0.10314519703388214, -0.37185731530189514, -0.13977600634098053, -0.54302740097045898, 0.27655339241027832, -0.16041935980319977, 0.036064222455024719, -0.34596619009971619, 0.15585912764072418, 0.34359502792358398, 0.51275151968002319, -0.002831608522683382, 0.28960537910461426, 0.23615744709968567, -0.63826447725296021, -0.30131492018699646, -0.36264955997467041, -0.36199072003364563, 0.47239509224891663, 0.058443356305360794, -0.51788020133972168, -0.38456916809082031, 0.33916342258453369, -0.14632502198219299, 0.08650844544172287, -0.023641576990485191, -0.80647629499435425, -0.14328904449939728, -0.37411367893218994, -0.14622220396995544, 0.27196216583251953, 0.28765043616294861, 0.096337512135505676, 0.057748936116695404, 0.34799522161483765, 0.0081141237169504166, -0.09372391551733017, 0.19222399592399597, -0.55288535356521606, -0.54352039098739624, 0.36198776960372925, -0.26291856169700623, 0.23367930948734283, -0.015989841893315315, 0.76082223653793335, -0.36164596676826477, 0.079098552465438843, 0.63621437549591064, -0.33333703875541687, -0.088185831904411316, -0.70190721750259399, 0.27397072315216064, 0.42877990007400513, -0.51849693059921265, 0.5934751033782959, -0.25150787830352783, -0.22795122861862183, 0.96062028408050537, 0.85874348878860474, 0.56352251768112183, -0.27639979124069214, -0.23231740295886993, 0.03616299107670784, 0.28314769268035889, };
const TfArray<1, int> tensor_dimension6 = { 1, { 128 } };
const ALIGN(16) float tensor_data7[128] = { 0.067412905395030975, -0.71279299259185791, 0.24356169998645782, 0.14356920123100281, -0.24375137686729431, -0.2255006730556488, -0.65388119220733643, -0.12112417072057724, -0.11526480317115784, 0.72664636373519897, -0.10896235704421997, -0.35518667101860046, -0.68544495105743408, 0.83882415294647217, 0.091091223061084747, -0.70727378129959106, 0.28020960092544556, 0.070220254361629486, 0.34292727708816528, 0.53124898672103882, -0.29863396286964417, 0.29165542125701904, -0.22773972153663635, 0.30741170048713684, 0.67969846725463867, -0.3549005389213562, -0.61116045713424683, 0.48828265070915222, 0.20816141366958618, 0.22266831994056702, 0.32015442848205566, -0.60869693756103516, 0.36744475364685059, -0.11656104773283005, 0.43250164389610291, -0.53141820430755615, 0.54307937622070312, -0.15247124433517456, -0.039032183587551117, 0.63870131969451904, -0.69701170921325684, 0.39036005735397339, -0.65806746482849121, 0.26053977012634277, 0.46378839015960693, -0.36159497499465942, 0.33210083842277527, 0.17170101404190063, -0.055247321724891663, 0.35254150629043579, 0.9592406153678894, 0.40659165382385254, -0.16511248052120209, -0.77430814504623413, 0.31615689396858215, -0.42767623066902161, 0.38873150944709778, -0.11344226449728012, 0.29853150248527527, 0.14632542431354523, 0.53210067749023438, -0.67129796743392944, 0.30770468711853027, -0.15861880779266357, -0.39586126804351807, 0.88481134176254272, -0.6289600133895874, -0.73802834749221802, 0.30321240425109863, 0.62000048160552979, 0.74385935068130493, 0.29117926955223083, -0.010716339573264122, -0.29799219965934753, 0.48083034157752991, -0.23406149446964264, 0.26517924666404724, -1.015748143196106, 0.40887641906738281, 0.39919048547744751, -0.31421130895614624, -0.0099675580859184265, -0.15777669847011566, 0.8106876015663147, -0.65575289726257324, 0.47124627232551575, 0.60687273740768433, -0.61614781618118286, 0.48929750919342041, 0.22105641663074493, -0.81927484273910522, -0.64869791269302368, 0.48565870523452759, -0.45425847172737122, -0.05649903416633606, -0.58694958686828613, -0.19756045937538147, -0.55135232210159302, -0.04106290265917778, 0.34163928031921387, -0.32936692237854004, -0.30338925123214722, -0.82849490642547607, -0.76284074783325195, -0.56134575605392456, 0.86725813150405884, -0.15358603000640869, -0.61119037866592407, -0.39252033829689026, -0.43447023630142212, 0.33065968751907349, 0.018574325367808342, 0.13794408738613129, 0.53938984870910645, 0.52536863088607788, -0.25216352939605713, -0.34912505745887756, -0.13894926011562347, -0.0066681224852800369, -0.43680864572525024, 0.31207767128944397, 0.32600504159927368, -0.51983630657196045, -0.52915322780609131, -0.49545520544052124, 0.1946636438369751, -0.17965325713157654, -0.52945429086685181, };
const TfArray<1, int> tensor_dimension7 = { 1, { 128 } };
const ALIGN(16) float tensor_data8[16*3*3*3] = { 
  /* [0][0][][] */ -12.377810478210449,-23.216926574707031,-5.8955879211425781, 4.7400012016296387,6.8720207214355469,3.6386818885803223, -0.22667180001735687,0.97818285226821899,-0.68102365732192993, 
  /* [0][1][][] */ 3.0412425994873047,5.0082645416259766,3.4455337524414062, 4.794285774230957,10.42781925201416,1.1545720100402832, 0.31496986746788025,0.052308764308691025,0.14500129222869873, 
  /* [0][2][][] */ 0.34375026822090149,1.7984335422515869,-0.64922881126403809, -0.54974830150604248,-0.65007477998733521,0.04645116999745369, -0.28106874227523804,-1.7123028039932251,0.65925770998001099, 
  /* [1][0][][] */ 6.477663516998291,1.343082070350647,-6.3672661781311035, 6.7356829643249512,3.9193985462188721,-5.0780525207519531, -0.26166331768035889,1.5775998830795288,-0.0090941227972507477, 
  /* [1][1][][] */ 0.79104822874069214,-2.2173013687133789,-8.3319873809814453, 0.98349255323410034,1.8015507459640503,-5.4430027008056641, 0.1230597123503685,5.4005823135375977,2.4795546531677246, 
  /* [1][2][][] */ -3.9695825576782227,-2.1515865325927734,-0.15345127880573273, -5.922147274017334,-2.5167512893676758,-1.1753226518630981, 0.67021465301513672,2.3449997901916504,1.5690608024597168, 
  /* [2][0][][] */ -3.3040854930877686,-3.9130899906158447,-0.5902591347694397, 2.3340933322906494,2.6398582458496094,0.56400257349014282, -0.12972310185432434,-1.4162061214447021,0.51961451768875122, 
  /* [2][1][][] */ -0.61734235286712646,-0.44154796004295349,-1.8802380561828613, 9.4613227844238281,12.331422805786133,2.1032381057739258, -0.47060695290565491,-1.5114905834197998,-2.0993914604187012, 
  /* [2][2][][] */ 0.54434829950332642,-0.17374657094478607,0.94068437814712524, 0.5853123664855957,-2.2039651870727539,-2.5444681644439697, 0.13374337553977966,-0.80689746141433716,1.9280415773391724, 
  /* [3][0][][] */ 2.8409590721130371,-0.11644106358289719,1.7703201770782471, -0.66972231864929199,-3.5767419338226318,0.08577854186296463, 1.5737943649291992,-0.68324863910675049,1.1283466815948486, 
  /* [3][1][][] */ 0.036229349672794342,-1.9636209011077881,0.29624843597412109, -6.9998140335083008,-8.0596942901611328,-4.2505598068237305, 0.83306390047073364,-0.51701539754867554,0.69255548715591431, 
  /* [3][2][][] */ 0.5959850549697876,0.42840477824211121,0.20458722114562988, 0.73615747690200806,1.6564679145812988,0.93558186292648315, -0.16727158427238464,-0.22541189193725586,-0.18723635375499725, 
  /* [4][0][][] */ -4.1883625984191895,-4.3111143112182617,-3.6913187503814697, 7.5417642593383789,8.9735727310180664,4.4906826019287109, 2.1184394359588623,2.4925286769866943,1.4167487621307373, 
  /* [4][1][][] */ 4.3547463417053223,4.4643158912658691,0.34841051697731018, -13.498761177062988,-21.329660415649414,-5.2232308387756348, -3.0636003017425537,-4.5051760673522949,0.51373732089996338, 
  /* [4][2][][] */ 4.168243408203125,5.3972325325012207,-3.0245430469512939, -1.0055140256881714,-0.076165355741977692,0.35204440355300903, 2.9721922874450684,6.6589436531066895,1.2950484752655029, 
  /* [5][0][][] */ -0.10983630269765854,-3.0381999015808105,-3.2036862373352051, -0.84634095430374146,-4.5627641677856445,-5.2281146049499512, 1.4189190864562988,0.63343274593353271,-1.773189902305603, 
  /* [5][1][][] */ 0.29129847884178162,-1.7841894626617432,-2.04132080078125, 0.57977139949798584,-2.274385929107666,-3.0148892402648926, 1.4295387268066406,0.70504236221313477,-1.577103853225708, 
  /* [5][2][][] */ 0.84459531307220459,0.67870688438415527,-0.018600087612867355, 1.7900980710983276,0.72822409868240356,-0.53120976686477661, 1.7004512548446655,0.17128026485443115,-2.1849474906921387, 
  /* [6][0][][] */ 1.5892336368560791,1.9130197763442993,0.6618916392326355, 1.8706769943237305,1.2303720712661743,1.1072105169296265, 2.0196244716644287,6.3998236656188965,1.0762027502059937, 
  /* [6][1][][] */ -0.4935452938079834,-1.7375472784042358,1.1146600246429443, -15.53382396697998,-27.042974472045898,-8.8832454681396484, 2.0567431449890137,1.8012372255325317,1.3294893503189087, 
  /* [6][2][][] */ 3.1186964511871338,8.0147609710693359,0.72441881895065308, 2.5930731296539307,5.4720573425292969,2.0678670406341553, 2.1819734573364258,4.0692334175109863,0.36428430676460266, 
  /* [7][0][][] */ 4.2151589393615723,5.7971606254577637,2.1732923984527588, 4.8303790092468262,7.0915946960449219,2.5805268287658691, 2.3018035888671875,3.7631189823150635,1.29344642162323, 
  /* [7][1][][] */ 0.22375790774822235,0.037022363394498825,0.009202892892062664, 0.38966575264930725,0.42538723349571228,0.17201466858386993, 0.33652856945991516,0.56194853782653809,0.29236504435539246, 
  /* [7][2][][] */ -4.2774720191955566,-5.8640494346618652,-1.9982041120529175, -5.6573991775512695,-7.7019486427307129,-2.742741584777832, -2.7323334217071533,-4.1481704711914062,-1.0379194021224976, 
  /* [8][0][][] */ 0.080710612237453461,4.9736204147338867,1.3751745223999023, -0.36718499660491943,4.1789965629577637,0.58663904666900635, -0.16746076941490173,-0.48276636004447937,-1.0370250940322876, 
  /* [8][1][][] */ -0.67680859565734863,3.6855862140655518,0.476146399974823, -1.8213714361190796,2.8201417922973633,-0.92961347103118896, -0.23028258979320526,-0.17462971806526184,-1.2558296918869019, 
  /* [8][2][][] */ -1.276147723197937,-1.0435734987258911,-1.3096144199371338, -1.1809487342834473,-0.41869473457336426,-1.1804068088531494, 0.76747947931289673,-0.21753573417663574,0.68489915132522583, 
  /* [9][0][][] */ 4.2933263778686523,-0.32820227742195129,-0.97006005048751831, 3.0131094455718994,-0.91644042730331421,-0.51228886842727661, -0.7305988073348999,-0.47683757543563843,0.34958034753799438, 
  /* [9][1][][] */ 4.4855246543884277,-0.61687982082366943,-0.3697979748249054, 2.5983259677886963,-1.8368111848831177,-0.44308042526245117, -1.0675451755523682,-1.0588639974594116,0.30423268675804138, 
  /* [9][2][][] */ -0.029214784502983093,-0.98877328634262085,0.35561695694923401, 0.082801997661590576,-0.45891079306602478,0.77855092287063599, -0.077978365123271942,0.52555841207504272,-0.022037582471966743, 
  /* [10][0][][] */ 3.6035892963409424,5.070650577545166,2.0237033367156982, 0.63231271505355835,0.61661911010742188,0.52653998136520386, -4.5720996856689453,-6.5114803314208984,-2.3808941841125488, 
  /* [10][1][][] */ 4.0678958892822266,6.0692439079284668,2.1908535957336426, 1.0110158920288086,1.3687942028045654,0.59748411178588867, -5.1201686859130859,-7.3441457748413086,-2.6846029758453369, 
  /* [10][2][][] */ 1.5215903520584106,2.5277261734008789,0.68377447128295898, 0.84528779983520508,1.3821651935577393,0.49358725547790527, -2.3336355686187744,-3.270876407623291,-0.70677143335342407, 
  /* [11][0][][] */ 4.4770889282226562,3.7402689456939697,2.5592327117919922, 0.17355960607528687,3.190558910369873,-0.60830378532409668, 0.28125190734863281,0.95090991258621216,0.35400283336639404, 
  /* [11][1][][] */ -15.123983383178711,-26.462432861328125,-8.1040525436401367, 2.6289176940917969,3.960587739944458,1.9187748432159424, -1.222866415977478,-0.41142696142196655,-1.5442029237747192, 
  /* [11][2][][] */ 4.6875452995300293,8.1042709350585938,3.6934843063354492, 3.2597379684448242,7.0356869697570801,-0.18837365508079529, 0.290975421667099,-0.53773123025894165,0.65420502424240112, 
  /* [12][0][][] */ 0.29369166493415833,-1.294133186340332,2.8498215675354004, 1.1282966136932373,-1.2824896574020386,2.8741328716278076, 0.52281779050827026,-1.0953940153121948,-0.087023273110389709, 
  /* [12][1][][] */ -0.53746157884597778,-2.9515435695648193,2.1836769580841064, 0.67751079797744751,-3.0829129219055176,2.1907079219818115, 1.416074275970459,-0.70712786912918091,0.44418627023696899, 
  /* [12][2][][] */ -0.3716045618057251,-2.18644118309021,-0.11713504046201706, -0.25602865219116211,-2.9242548942565918,-0.24106474220752716, 0.9622337818145752,0.28696772456169128,0.20360834896564484, 
  /* [13][0][][] */ 3.0609941482543945,2.2612030506134033,2.4983062744140625, -14.945257186889648,-26.45323371887207,-7.5549607276916504, 5.4997172355651855,7.9177799224853516,3.3407204151153564, 
  /* [13][1][][] */ 3.0050876140594482,6.9905085563659668,0.88296747207641602, 1.6884104013442993,3.5784313678741455,2.5164141654968262, 2.7152755260467529,6.3223152160644531,0.17652691900730133, 
  /* [13][2][][] */ 0.10881316661834717,-0.11349807679653168,0.068967543542385101, -0.92655515670776367,0.30886170268058777,-1.0452009439468384, -0.2474265992641449,-0.26538854837417603,0.98689818382263184, 
  /* [14][0][][] */ -1.7965056896209717,1.1151800155639648,0.59291088581085205, -1.8478156328201294,1.3154505491256714,0.87194949388504028, -0.69037836790084839,0.62059134244918823,-0.56387847661972046, 
  /* [14][1][][] */ -2.0996189117431641,1.1005220413208008,0.80651658773422241, -2.3106322288513184,1.362922191619873,0.94326996803283691, -0.74131232500076294,1.0042721033096313,-0.068940654397010803, 
  /* [14][2][][] */ -0.77294421195983887,0.82660776376724243,-0.44439208507537842, -0.98287373781204224,1.037087082862854,-0.074857912957668304, -0.01665964163839817,1.0009160041809082,-0.26277792453765869, 
  /* [15][0][][] */ 6.0599908828735352,7.776512622833252,4.0298304557800293, -5.9953951835632324,-7.5568132400512695,-3.0199055671691895, -5.1715421676635742,-8.0104179382324219,-1.1477217674255371, 
  /* [15][1][][] */ 6.607541561126709,9.2694005966186523,2.4180974960327148, 2.0562326908111572,2.7847299575805664,0.13361829519271851, -1.689424991607666,-3.1590228080749512,-1.054085373878479, 
  /* [15][2][][] */ -2.7879178524017334,-2.0884013175964355,-1.9298702478408813, -1.4410229921340942,-1.0442404747009277,-0.6418994665145874, 2.1939859390258789,1.6246280670166016,1.6510761976242065, 
};
const TfArray<4, int> tensor_dimension8 = { 4, { 16,3,3,3 } };
const ALIGN(16) float tensor_data9[32*3*3*16] = { 
  /* [0][0][][] */ -0.028054641559720039,0.11446923017501831,0.05603804811835289,0.012573379091918468,0.016325406730175018,0.15547846257686615,-0.0062699750997126102,-0.026394570246338844,-0.1252608448266983,0.12874661386013031,-0.012682429514825344,-0.0002495048101991415,-0.10156542807817459,-0.018640235066413879,-0.1820724755525589,0.0077709401957690716, 0.011859454214572906,0.40871691703796387,0.017066309228539467,-0.030413277447223663,0.0665154829621315,0.15627411007881165,0.019094182178378105,0.014406849630177021,0.029378911480307579,0.042565301060676575,-0.0034689935855567455,0.017086006700992584,-0.39155206084251404,0.011318434029817581,-0.038322903215885162,0.047668632119894028, -0.0055836229585111141,0.16274319589138031,0.0072468556463718414,-0.066422134637832642,0.031468011438846588,0.08163868635892868,-0.013973751105368137,0.01900155283510685,0.1752500981092453,-0.12316866219043732,-0.0030412687920033932,-0.0069821258075535297,-0.26244860887527466,-0.0051802843809127808,0.035017713904380798,-0.0059166955761611462, 
  /* [0][1][][] */ -0.0038881548680365086,-0.013271649368107319,0.013845184817910194,0.050810392946004868,0.0015612678835168481,0.065768346190452576,-0.026105841621756554,-0.0070547424256801605,-0.40533870458602905,0.23050349950790405,0.00091289402917027473,-0.0055819596163928509,0.19393521547317505,-0.0089450469240546227,-0.16033858060836792,0.0021519763395190239, 0.04697490856051445,-0.15609376132488251,0.0026357544120401144,-0.032293688505887985,0.041237350553274155,-0.035383947193622589,0.00055471237283200026,0.018277393653988838,0.082006961107254028,-0.14868585765361786,-0.002478711074218154,0.0065869344398379326,0.10588784515857697,0.016457542777061462,0.12148690223693848,0.036082759499549866, -0.0071362773887813091,-0.036818541586399078,-0.035277552902698517,-0.03474198654294014,0.0067979581654071808,-0.046206608414649963,0.0048999050632119179,-0.0074752043001353741,0.29373461008071899,-0.27838870882987976,-0.0025341510772705078,0.016019737347960472,-0.088587410748004913,0.007902342826128006,0.11642120033502579,-0.022778451442718506, 
  /* [0][2][][] */ 0.0017305841902270913,-0.2289021909236908,-0.019940031692385674,0.034497644752264023,-0.0035210547503083944,-0.10852441191673279,-0.0019266639137640595,-0.0070704454556107521,-0.26474618911743164,0.12405956536531448,0.003202211344614625,-0.0023461559321731329,0.31386500597000122,0.00097354600438848138,-0.072067998349666595,0.0055499044246971607, -0.012213890440762043,-0.35108295083045959,-0.061825551092624664,0.01733720488846302,-0.0072047370485961437,-0.15630336105823517,0.013388805091381073,0.0013455608859658241,0.050899278372526169,-0.0050756987184286118,0.0083913058042526245,0.025002859532833099,0.31100103259086609,0.013158473186194897,0.048056628555059433,-0.0067367060109972954, -0.0021910727955400944,-0.0078712096437811852,0.0064646718092262745,-0.011532080359756947,0.0084840543568134308,-0.084952607750892639,-0.014763624407351017,0.0099597973749041557,0.04611191526055336,-0.028852052986621857,0.0069463658146560192,-0.017341455444693565,-0.072637796401977539,-0.0048244674690067768,-0.0081788459792733192,0.0024646508973091841, 
  /* [1][0][][] */ -0.033251844346523285,0.073511950671672821,-0.026361113414168358,0.13644178211688995,-0.093175351619720459,0.0082060843706130981,0.14318439364433289,0.052055217325687408,-0.022215301170945168,-0.02506377175450325,-0.12755061686038971,-0.04448288306593895,0.050474487245082855,-0.056641209870576859,-0.028600545600056648,-0.054088842123746872, -0.067094072699546814,0.18303693830966949,0.063400313258171082,-0.12155544012784958,-0.16720046103000641,-0.044032946228981018,-0.45206728577613831,0.26962018013000488,0.20899337530136108,0.057865258306264877,-0.15706998109817505,-0.083308055996894836,0.23742082715034485,-0.064734086394309998,0.05196056142449379,0.062105782330036163, 0.094247981905937195,-0.083509728312492371,-0.00971966702491045,-0.030204175040125847,0.015887083485722542,0.011003315448760986,0.040189623832702637,-0.087966829538345337,0.0044541540555655956,-0.0037301734555512667,0.049004215747117996,-0.14134915173053741,-0.07779298722743988,0.0662398561835289,0.071322567760944366,0.0079596042633056641, 
  /* [1][1][][] */ 0.086558014154434204,-0.14737381041049957,0.032855585217475891,-0.065714962780475616,-0.2565167248249054,-0.0069508454762399197,-0.1468910276889801,-0.26012352108955383,-0.039981789886951447,0.022957716137170792,0.16437478363513947,-0.064559005200862885,-0.15157581865787506,0.10412134975194931,-0.042670462280511856,0.16872721910476685, 0.30566540360450745,-0.13220295310020447,-0.039276421070098877,0.19390779733657837,0.15756510198116302,0.047843247652053833,0.6755976676940918,-0.074785046279430389,-0.35573005676269531,-0.16115781664848328,-0.04227977991104126,0.039414677768945694,-0.19962677359580994,-0.043158415704965591,-0.10522085428237915,-0.162915900349617, -0.39073151350021362,0.036322690546512604,-0.018321748822927475,-0.016353035345673561,-0.05732712522149086,-0.085879065096378326,-0.11798352748155594,0.15985801815986633,0.12961307168006897,0.031239595264196396,-0.1462811678647995,0.16630983352661133,0.079778924584388733,-0.15555235743522644,-0.067951232194900513,-0.064187884330749512, 
  /* [1][2][][] */ 0.071131929755210876,0.11072429269552231,0.0050229760818183422,0.0077430843375623226,0.093161366879940033,-0.023526161909103394,0.028857577592134476,0.094035938382148743,0.049918994307518005,-0.021859006956219673,0.0092560164630413055,0.0028038125019520521,0.10415931046009064,-0.026362430304288864,0.034563619643449783,-0.13799320161342621, -0.26317659020423889,-0.0041485526598989964,0.01338872779160738,-0.06302923709154129,-0.15124806761741638,-0.011818569153547287,-0.12744893133640289,-0.16800463199615479,0.15585288405418396,0.1120012030005455,0.19831253588199615,-0.030005227774381638,0.023602578788995743,0.075720131397247314,0.036542706191539764,0.047547869384288788, 0.17396864295005798,0.023391246795654297,-0.028914283961057663,0.031991757452487946,0.011705293320119381,0.067790471017360687,0.060546297580003738,0.0025113634765148163,-0.082918167114257812,-0.014550318010151386,0.084024287760257721,-0.0065183262340724468,-0.028803164139389992,0.022878732532262802,0.017917262390255928,0.012748654931783676, 
  /* [2][0][][] */ -0.011834763921797276,0.16214804351329803,0.040216315537691116,0.061451904475688934,0.20328384637832642,-0.0021717064082622528,0.34999033808708191,-0.10767816752195358,0.16324381530284882,0.060226239264011383,-0.058796852827072144,-0.32610023021697998,0.14631307125091553,-0.43102991580963135,0.065038636326789856,0.022984376177191734, 0.96458232402801514,-0.048844482749700546,0.23698396980762482,-0.26198074221611023,-0.05837804451584816,0.0127890445291996,-0.58442848920822144,0.17041723430156708,-0.044199120253324509,-0.10479242354631424,0.074241168797016144,0.055977668613195419,-0.030242022126913071,-0.48126804828643799,0.017861511558294296,0.013560445979237556, 0.017394360154867172,-0.027755165472626686,0.10317127406597137,-0.068045094609260559,-0.13503088057041168,0.10146826505661011,-0.061505470424890518,-0.076660402119159698,-0.17793071269989014,-0.00065028667449951172,-0.032655112445354462,0.70424944162368774,-0.018865481019020081,-0.070215575397014618,-0.041980613023042679,-0.061797026544809341, 
  /* [2][1][][] */ 0.118547722697258,-0.0027529718354344368,-0.027980880811810493,-0.10420698672533035,-0.0044245743192732334,0.019475724548101425,-0.10250363498926163,-0.035884696990251541,-0.063986003398895264,-0.063384503126144409,-0.050765901803970337,-0.0093828337267041206,-0.054167404770851135,0.25456911325454712,-0.021019339561462402,-0.098017700016498566, -1.2831356525421143,0.014889884740114212,-0.202227383852005,0.2816181480884552,-0.19909009337425232,0.05802440270781517,0.1057613268494606,0.074141994118690491,-0.047229219228029251,-0.015130278654396534,-0.010067370720207691,0.30216595530509949,0.038558091968297958,0.82720589637756348,-0.094350442290306091,0.086104683578014374, -0.075862735509872437,-0.0078608645126223564,-0.10016710311174393,0.020986856892704964,0.05739939957857132,-0.0079105831682682037,0.082011140882968903,-0.055305857211351395,0.10672490298748016,0.058916714042425156,0.027518317103385925,-0.33797004818916321,0.006125208456069231,0.070884205400943756,-0.031963475048542023,0.058982022106647491, 
  /* [2][2][][] */ 0.071936443448066711,-0.046652629971504211,0.015674019232392311,-0.057739801704883575,-0.046653594821691513,0.0030894754454493523,-0.0043899696320295334,-0.001696807099506259,-0.04821908101439476,0.00072588748298585415,0.060414645820856094,0.021612808108329773,0.027965763583779335,0.0036077678669244051,-0.00089713506167754531,-0.045527033507823944, -0.077208466827869415,0.04112866148352623,-0.020497862249612808,-0.051143001765012741,-0.088986508548259735,-0.015570997260510921,0.047580406069755554,-0.018465550616383553,-0.01400150079280138,0.066190004348754883,-0.074230372905731201,0.0083253085613250732,0.043243050575256348,0.075648538768291473,-0.050813518464565277,-0.10992255806922913, -0.051319383084774017,-0.071508489549160004,-0.033697489649057388,-0.042779795825481415,-0.017913589254021645,-0.0094864536076784134,0.044489894062280655,-0.010139740072190762,0.051933988928794861,0.067398577928543091,0.035273879766464233,-0.039051488041877747,-0.02301299199461937,0.040418237447738647,-0.015026978217065334,-0.066145151853561401, 
  /* [3][0][][] */ -0.094920940697193146,-0.043077431619167328,-0.01584729366004467,-0.028952589258551598,0.11106691509485245,0.22560460865497589,-0.0051704659126698971,0.10531473904848099,-0.071199461817741394,-0.17307133972644806,0.0094416039064526558,-0.050802115350961685,-0.17949645221233368,-0.027714164927601814,-0.058169443160295486,0.0010909454431384802, -0.01677132211625576,0.226032555103302,-0.029319638386368752,-0.063269428908824921,0.053269781172275543,0.20882529020309448,0.0017732839332893491,0.12310131639242172,0.039100915193557739,0.023046834394335747,-0.078447394073009491,-0.074327677488327026,-0.16544206440448761,0.067803680896759033,-0.10462401062250137,-0.051492020487785339, 0.031540252268314362,-0.089266233146190643,-0.0086947530508041382,-0.069593928754329681,0.028703060001134872,0.15089216828346252,0.014723074622452259,0.0036524015013128519,0.075735807418823242,-0.13254600763320923,0.0089303599670529366,0.035861145704984665,-0.10097154974937439,0.039986439049243927,0.0309132169932127,-0.044280219823122025, 
  /* [3][1][][] */ -0.11315843462944031,-0.047513049095869064,-0.043185330927371979,0.065886102616786957,0.21017122268676758,0.22839215397834778,-0.047536883503198624,-0.09207017719745636,-0.20006208121776581,0.008868856355547905,0.13416287302970886,-0.020053043961524963,-0.09270188957452774,-0.057448361068964005,-0.11162130534648895,0.14807514846324921, -0.17225909233093262,0.33033901453018188,-0.05943167582154274,0.073246017098426819,0.081382580101490021,0.29706940054893494,-0.01487200241535902,0.024459825828671455,-0.18031857907772064,0.1075618639588356,-0.17599199712276459,0.14347034692764282,0.044324208050966263,-0.03051644004881382,-0.13580715656280518,-0.0031008841469883919, 0.046144958585500717,0.047225609421730042,0.0092783262953162193,-0.054272964596748352,-0.058302696794271469,0.22753094136714935,0.0070218225009739399,-0.029126435518264771,0.026507221162319183,-0.060569953173398972,-0.0036605366040021181,-0.030208522453904152,-0.0082489456981420517,0.036987092345952988,-0.026146074756979942,-0.050305094569921494, 
  /* [3][2][][] */ -0.023674590513110161,-0.15827567875385284,0.0064648794941604137,0.039502345025539398,-0.1048211008310318,0.14481326937675476,-0.0042638741433620453,-0.10224337130784988,-0.1171804741024971,-0.22861024737358093,0.044899731874465942,-0.070211790502071381,-0.033382143825292587,-0.062965981662273407,-0.020452270284295082,0.012630482204258442, 0.027778388932347298,-0.029758982360363007,0.0085845617577433586,0.12558001279830933,-0.084210857748985291,0.22232396900653839,0.0046391980722546577,-0.024348646402359009,-0.049761518836021423,-0.18242833018302917,-0.057746544480323792,-0.037318632006645203,0.044365979731082916,-0.0086993537843227386,-0.037367094308137894,0.1018323227763176, -0.037026666104793549,-0.10288137197494507,-0.014898727647960186,0.012174627743661404,0.062424939125776291,0.20339013636112213,-0.020630219951272011,0.0069444221444427967,0.021773282438516617,-0.21903043985366821,-0.051977209746837616,0.0082282768562436104,-0.070030078291893005,-0.036428440362215042,-0.009822075255215168,0.015725364908576012, 
  /* [4][0][][] */ -0.0077185952104628086,0.056979373097419739,0.012617318890988827,-0.0053485152311623096,0.0025692267809063196,0.064737170934677124,0.005754049401730299,0.0014615849358960986,-0.11148257553577423,0.19848448038101196,-0.0078451484441757202,0.0056161442771553993,-0.022187139838933945,-0.0031958627514541149,-0.15086658298969269,-0.012535037472844124, -0.0064635556191205978,-0.01061991136521101,0.0044502997770905495,0.016430603340268135,-0.003537406213581562,-0.038851980119943619,0.0013339291326701641,-0.0068418793380260468,-0.019415896385908127,0.030283607542514801,0.0050455168820917606,-0.0087571395561099052,0.082008630037307739,0.0092830061912536621,0.010542760603129864,0.0029389872215688229, -0.01020915899425745,-0.16154283285140991,-0.0049765934236347675,0.032406147569417953,-0.0154098030179739,-0.094425879418849945,-0.010095338337123394,0.0094245253130793571,0.053184572607278824,-0.17601923644542694,-0.0037478844169527292,-0.0072771045379340649,0.079687684774398804,-0.0048362873494625092,0.091153062880039215,0.01196416188031435, 
  /* [4][1][][] */ 0.0062423143535852432,0.36022377014160156,-0.011966999620199203,-0.027694795280694962,-0.0098024290055036545,0.10831593722105026,0.016690472140908241,0.0024686660617589951,-0.16768677532672882,0.47084233164787292,-0.0068319574929773808,-4.4031577999703586e-05,-0.20601695775985718,0.0072165718302130699,-0.22810985147953033,-0.028811786323785782, 0.0025024146307259798,-0.013799146749079227,-0.0025722715072333813,-0.012893517501652241,-0.0070865442976355553,-0.017379077151417732,-0.0090778600424528122,-0.0039279074408113956,0.031015850603580475,-0.034772131592035294,0.0028416081331670284,-0.0023411551956087351,0.021327007561922073,-0.0028958180919289589,0.077150225639343262,-0.011798612773418427, -0.0016338690184056759,-0.33608832955360413,-0.0037782823201268911,0.012392334640026093,0.00094817561330273747,-0.0784621462225914,-0.00020661260350607336,-0.010063245892524719,0.12093556672334671,-0.41158142685890198,0.0040614623576402664,-0.0035368266981095076,0.14980189502239227,0.0074182068929076195,0.20975320041179657,9.8754069767892361e-05, 
  /* [4][2][][] */ 0.02208324708044529,0.19413203001022339,0.011706038378179073,-0.018803656101226807,1.5020420505607035e-05,0.10324393212795258,-0.0013329940848052502,-0.0078133838251233101,-0.044148251414299011,0.19026800990104675,-0.0033455179072916508,0.0070385937578976154,-0.080442927777767181,0.019439930096268654,-0.092939980328083038,-0.002110837958753109, -0.014062925241887569,-0.0026473531033843756,0.0073036509566009045,0.00048585515469312668,0.0087632285431027412,0.026114128530025482,-0.0037436662241816521,0.00057586125330999494,0.070649318397045135,-0.088646978139877319,0.012532442808151245,0.0072780163027346134,-0.031366825103759766,-0.0091869933530688286,0.035950656980276108,0.017630092799663544, -0.014461995102465153,-0.10168405622243881,0.0071048028767108917,-0.0011454334016889334,0.0040229009464383125,-0.042804382741451263,-0.012639305554330349,-0.00061551394173875451,0.033358871936798096,-0.14633128046989441,-0.010678933933377266,-0.010291681624948978,0.01429232582449913,-0.011779014952480793,0.027676105499267578,0.0063597043044865131, 
  /* [5][0][][] */ 0.03341466560959816,-0.19317187368869781,0.12486013025045395,-0.13587853312492371,-0.11827251315116882,-0.037587951868772507,-0.0092369206249713898,0.020430393517017365,0.022504709661006927,0.15912570059299469,0.11798708140850067,0.018670544028282166,-0.13664987683296204,0.054718606173992157,0.032788723707199097,-0.01541485171765089, -0.034835591912269592,0.061496227979660034,-0.049465641379356384,0.092597752809524536,0.024580027908086777,-0.0014582808362320065,0.059144593775272369,-0.040248032659292221,-0.075172863900661469,-0.10658504068851471,0.047719653695821762,-0.080845162272453308,0.054028380662202835,-0.00071744469460099936,-0.043199770152568817,-0.047789614647626877, -0.049636900424957275,0.027301222085952759,-0.061241984367370605,0.02635589987039566,0.0011193917598575354,-0.0026734138373285532,0.0021732181776314974,0.025616345927119255,-0.047764558345079422,-0.087777905166149139,-0.01787736639380455,-0.018066905438899994,-0.012376538477838039,-0.0222758948802948,-0.024790430441498756,-0.036428708583116531, 
  /* [5][1][][] */ 0.033208299428224564,-0.026880662888288498,0.19419494271278381,-0.13322019577026367,-0.080762676894664764,-0.09731881320476532,-0.057411570101976395,-0.035801056772470474,0.36237651109695435,0.37588819861412048,0.3049987256526947,-0.031661603599786758,0.094210557639598846,-0.18085797131061554,0.00383342569693923,0.15684133768081665, -0.18727979063987732,0.028058877214789391,-0.086143754422664642,0.17172068357467651,0.012215498834848404,0.08267473429441452,0.084696143865585327,-0.0044574537314474583,-0.10812854021787643,-0.090931802988052368,0.18541355431079865,-0.025983085855841637,-0.018667643889784813,0.16073812544345856,-0.045329857617616653,0.15799550712108612, 0.04079880565404892,0.04074433445930481,-0.066424891352653503,-0.041066017001867294,-0.020926129072904587,0.07610495388507843,0.012972336262464523,-0.038286291062831879,-0.14101175963878632,-0.15143655240535736,0.024235151708126068,0.020060108974575996,-0.013001200743019581,0.0068382751196622849,-0.0023915970232337713,-0.084251448512077332, 
  /* [5][2][][] */ -0.047304697334766388,-0.017717903479933739,0.037874568253755569,-0.056365668773651123,-0.015123367309570312,-0.065980054438114166,0.017984665930271149,-0.034384127706289291,0.15604080259799957,0.15895408391952515,-0.0047294087707996368,0.029261432588100433,0.040971763432025909,-0.0025143236853182316,0.010467442683875561,0.019118411466479301, -0.04044404998421669,-0.023030884563922882,-0.055163901299238205,0.014398511499166489,-0.01602734811604023,0.03237089142203331,-0.01523029338568449,-0.021104849874973297,-0.1276223361492157,-0.1132299080491066,0.01401190273463726,-0.019869478419423103,-0.04900003969669342,0.018326785415410995,-0.018733391538262367,-0.045035753399133682, 0.03419707715511322,-0.039733026176691055,-0.055039595812559128,0.010709226131439209,0.035047978162765503,0.061521135270595551,0.014831523410975933,0.0079902680590748787,-0.14918386936187744,-0.086952328681945801,0.026724556460976601,0.002163782948628068,-0.015998950228095055,0.040944978594779968,0.022772600874304771,0.010322999209165573, 
  /* [6][0][][] */ 0.040057741105556488,0.059485312551259995,0.014379248023033142,0.047202210873365402,-0.010466919280588627,-0.076651565730571747,-0.013147785328328609,-0.073734961450099945,0.0032538906671106815,0.1231512725353241,-0.019537229090929031,-0.024618551135063171,0.054400060325860977,-0.015826242044568062,0.083592146635055542,-0.099379852414131165, 0.067666284739971161,-0.28235986828804016,0.051833648234605789,0.023943059146404266,-0.067023098468780518,-0.044439308345317841,0.026669476181268692,-0.0058461441658437252,0.14296182990074158,0.10593998432159424,0.095254413783550262,0.011207409203052521,0.099036052823066711,-0.033668063580989838,0.13765980303287506,-0.032870002090930939, -0.058118775486946106,-0.074886463582515717,0.04948030412197113,0.025418562814593315,0.026288865134119987,0.15018081665039062,0.043570265173912048,-0.013017898425459862,-0.044339153915643692,0.099986091256141663,-0.04098009318113327,-0.048322305083274841,-0.1649676114320755,-0.03604641929268837,-0.071118541061878204,0.065079227089881897, 
  /* [6][1][][] */ -0.013004958629608154,-0.048843909054994583,0.080596499145030975,0.026488702744245529,0.069228857755661011,-0.13926231861114502,0.0026486918795853853,-0.020130172371864319,0.15403784811496735,0.0095694037154316902,-0.068465478718280792,0.016656406223773956,0.22330981492996216,-0.00025335984537377954,0.13276900351047516,-0.054778158664703369, 0.031544234603643417,-0.44902878999710083,0.12625348567962646,-0.017803031951189041,-0.0050400360487401485,-0.13267113268375397,-0.030801305547356606,0.0075121079571545124,0.3986319899559021,-0.013041972182691097,0.062004625797271729,0.013033312745392323,0.4175010621547699,0.0034384655300527811,0.21032464504241943,0.080164991319179535, -0.033212613314390182,-0.20599724352359772,0.085599265992641449,0.011833848431706429,0.044188708066940308,0.065923020243644714,0.0071870293468236923,-0.025987403467297554,0.098013937473297119,0.030261669307947159,-0.020415335893630981,0.061448898166418076,0.020782113075256348,0.031754236668348312,-0.013874656520783901,0.13446882367134094, 
  /* [6][2][][] */ -0.066117666661739349,0.12428801506757736,0.06808018684387207,0.014442279934883118,0.16987641155719757,-0.0033262614160776138,-0.040831875056028366,0.012199033051729202,0.018289417028427124,-0.00044351082760840654,-0.029312619939446449,-0.051782134920358658,-0.043253853917121887,-0.081703923642635345,-0.052433311939239502,0.021935416385531425, -0.034327432513237,-0.10946423560380936,0.092617213726043701,-0.015427218750119209,0.12611618638038635,-0.022452510893344879,-0.0620308518409729,0.027558984234929085,0.16217486560344696,-0.024997878819704056,-0.019207794219255447,0.0064744884148240089,0.20735058188438416,-0.0019690040498971939,0.0078657837584614754,0.094914369285106659, -0.017223255708813667,-0.013205857016146183,0.074840374290943146,0.023992061614990234,0.074380733072757721,0.095821850001811981,-0.076378487050533295,0.020873416215181351,-0.053112145513296127,-0.037604603916406631,-0.043612577021121979,-0.00071872328408062458,-0.0434291772544384,0.011252431198954582,-0.11331021785736084,0.080101028084754944, 
  /* [7][0][][] */ -0.043396923691034317,0.37891069054603577,-0.03741416335105896,0.15708091855049133,0.015858359634876251,0.0066793886944651604,0.031764857470989227,-0.0246101263910532,0.012259701266884804,-0.21951431035995483,-0.10777579993009567,-0.037844039499759674,0.21248418092727661,-0.007159749511629343,-0.012008901685476303,0.0047289240173995495, 0.047067165374755859,-0.1219470277428627,0.061693072319030762,-0.14922744035720825,-0.1332966685295105,-0.089303642511367798,0.037887148559093475,0.034088157117366791,-0.075806036591529846,0.034343183040618896,-0.091904915869235992,0.090431459248065948,-0.033468790352344513,0.021840307861566544,0.021372638642787933,0.037756443023681641, 0.022654512897133827,-0.27464008331298828,0.0076797851361334324,-0.13578468561172485,6.5927626565098763e-05,-0.074465766549110413,0.0056006168015301228,-0.0039680292829871178,0.038660038262605667,0.21782048046588898,0.019418239593505859,-0.010934638790786266,-0.15126945078372955,0.045108087360858917,0.056580882519483566,-0.14821928739547729, 
  /* [7][1][][] */ 0.052475150674581528,0.28310957551002502,-0.15330423414707184,0.27549809217453003,0.076918795704841614,0.19899855554103851,0.18038845062255859,0.048245869576931,-0.33148080110549927,-0.45552700757980347,-0.24981749057769775,0.11482918262481689,-0.0069263349287211895,0.29633614420890808,-0.017129532992839813,-0.012928501702845097, 0.3002791702747345,0.056354183703660965,0.19045458734035492,-0.12964951992034912,-0.015109909698367119,-0.085172601044178009,-0.063748985528945923,-0.027898836880922318,0.098291918635368347,0.036844417452812195,-0.24831898510456085,0.086844727396965027,0.1602713018655777,-0.18078598380088806,0.0088916951790452003,0.011286188848316669, -0.10687387734651566,-0.10435713082551956,-0.046390265226364136,-0.038824841380119324,-0.07883627712726593,-0.11237405985593796,-0.0010934941237792373,0.04281529039144516,0.32560661435127258,0.33764103055000305,0.0002770221617538482,-0.010987917892634869,0.015528437681496143,0.0077090952545404434,0.02067972905933857,-0.15085324645042419, 
  /* [7][2][][] */ 0.087511599063873291,0.063563205301761627,0.0061073587276041508,0.10453074425458908,0.0018473182572051883,0.12729658186435699,0.0097763976082205772,-0.012103303335607052,-0.16433997452259064,-0.19002905488014221,0.0098077449947595596,-0.024227829650044441,-0.11543042957782745,0.031002998352050781,-0.0075700413435697556,-0.10042522102594376, 0.038955178111791611,0.0056445491500198841,-0.0024229909759014845,-0.019546464085578918,-0.0092065306380391121,-0.0045345262624323368,0.037269033491611481,-0.016715511679649353,0.052560579031705856,0.018177544698119164,-0.00052608974510803819,0.0142761105671525,0.015813753008842468,-0.003204903332516551,0.015350937843322754,-0.01576504297554493, -0.092341922223567963,-0.11788809299468994,-0.039466239511966705,-0.086667925119400024,0.038411978632211685,-0.053401552140712738,-0.038919582962989807,-0.030357813462615013,0.15138283371925354,0.11467569321393967,-0.046271789819002151,-0.047403406351804733,-0.072042711079120636,-0.013078343123197556,0.047378323972225189,-0.15366235375404358, 
  /* [8][0][][] */ -6.1745900893583894e-05,0.033268112689256668,0.025703571736812592,0.068407401442527771,-0.081622220575809479,-0.045498933643102646,0.0063925622962415218,0.097338110208511353,-0.047231245785951614,0.0031860978342592716,-0.074292510747909546,-0.052578262984752655,0.036921899765729904,-0.0030251378193497658,-0.061905864626169205,-0.078064419329166412, -0.0043429923243820667,-0.14752879738807678,0.03241116926074028,0.088509738445281982,-0.042479295283555984,-0.015426477417349815,-0.014385810121893883,0.024492906406521797,-0.23249031603336334,0.02341090701520443,0.031284403055906296,-0.019449120387434959,0.52819991111755371,0.0017638774588704109,-0.069558128714561462,-0.1126810759305954, -0.01799231581389904,0.0063407206907868385,0.0042436392977833748,-0.00027359815430827439,-0.051373500376939774,-0.053711619228124619,-0.029554110020399094,-0.09144611656665802,-0.10022930055856705,-0.13035288453102112,-0.01493803970515728,0.0053231744095683098,0.018956996500492096,-0.019932636991143227,-0.022842841222882271,-0.061839554458856583, 
  /* [8][1][][] */ -0.039269778877496719,-0.056613173335790634,0.059515997767448425,0.051835771650075912,0.061071954667568207,0.053270578384399414,-0.012350274249911308,-0.018362395465373993,-0.12848030030727386,0.093678630888462067,0.039027195423841476,-0.00092736404621973634,0.1689717024564743,-0.011531972326338291,-0.031213723123073578,0.072911925613880157, 0.0056928605772554874,-0.23074658215045929,0.072515852749347687,0.051490787416696548,0.13162857294082642,0.041872035712003708,0.022167310118675232,-0.060254540294408798,-0.34910699725151062,0.20200394093990326,-0.051794677972793579,0.026421546936035156,0.68343788385391235,0.016890911385416985,-0.051688097417354584,0.086301133036613464, 0.038400720804929733,-0.093320876359939575,0.028217028826475143,0.036933820694684982,0.068891368806362152,-0.00092521886108443141,0.0084285344928503036,-0.012743910774588585,-0.12684156000614166,-0.080132648348808289,-0.0024382579140365124,0.049320537596940994,0.1699901819229126,0.012049905955791473,0.020554723218083382,0.057892251759767532, 
  /* [8][2][][] */ -0.064582839608192444,0.19337646663188934,-0.0014598912093788385,-0.055952437222003937,-0.078355759382247925,0.061403892934322357,-0.029289321973919868,-0.070713520050048828,0.136519655585289,0.012741428799927235,0.011729924008250237,-0.023204481229186058,-0.35625985264778137,-0.01227825041860342,0.014582841657102108,-0.042445585131645203, 0.0053014131262898445,-0.022934259846806526,0.017311714589595795,-0.015466905198991299,-0.016124458983540535,0.061277803033590317,0.023314991965889931,-0.053614713251590729,0.023726921528577805,0.039861574769020081,-0.035222206264734268,0.0012466352200135589,0.07165151834487915,0.038313239812850952,0.016944862902164459,0.032242000102996826, 0.040176592767238617,0.027590312063694,-0.024781409651041031,-0.022663809359073639,-0.067432478070259094,0.047204449772834778,0.021091869100928307,-0.036293622106313705,0.11316560208797455,-0.18710601329803467,0.0061009651981294155,-0.011079576797783375,-0.18705335259437561,-0.019172994419932365,0.054903734475374222,-0.0055243968963623047, 
  /* [9][0][][] */ -0.023108182474970818,-0.21313543617725372,-0.024005848914384842,0.056743908673524857,0.015924505889415741,-0.092322133481502533,-0.0058957627043128014,0.017095617949962616,-0.35806527733802795,0.2177530825138092,0.0028337372932583094,0.013755453750491142,0.47126296162605286,0.0078009739518165588,-0.15582464635372162,0.025862051174044609, -0.027422297745943069,-0.032708264887332916,0.040539652109146118,0.035374455153942108,0.0053621092811226845,0.039851292967796326,0.0020339093171060085,-0.030581386759877205,-0.37925484776496887,0.29557782411575317,-0.0095490561798214912,-0.014213373884558678,0.27790644764900208,-0.012747066095471382,-0.24456709623336792,-0.014627542346715927, 0.0091593498364090919,-0.04401421919465065,0.021274479106068611,0.0075837839394807816,-0.017293721437454224,0.024503402411937714,0.0036535114049911499,-0.0051599466241896152,-0.081572137773036957,0.14921335875988007,0.00066352041903883219,0.0071309902705252171,0.0055143311619758606,0.00020162100554443896,-0.013363610953092575,-0.0076412144117057323, 
  /* [9][1][][] */ 0.025585625320672989,-0.2745271623134613,-0.029674174264073372,-0.0002718888281378895,-0.018879756331443787,-0.10939302295446396,0.022750670090317726,0.0037140401545912027,0.062263622879981995,-0.03741919994354248,-0.00025795085821300745,0.0071484013460576534,0.2880663275718689,0.01161025557667017,0.093348599970340729,-0.014218713156878948, -0.0023951809853315353,0.02553517185151577,0.013803670182824135,-0.031101223081350327,0.073744967579841614,0.048429198563098907,-0.0034592472948133945,0.0066760862246155739,-0.040472585707902908,-0.088880822062492371,0.00736596854403615,0.0025721075944602489,-0.0939350426197052,-0.01553395576775074,0.0030568717047572136,0.031873058527708054, -0.011342259123921394,0.2310054749250412,0.02261069230735302,-0.030256442725658417,0.014836803078651428,0.06351441890001297,0.011822906322777271,-0.0029779323376715183,0.11403357237577438,-0.020035207271575928,0.012458985671401024,-0.014406874775886536,-0.28603538870811462,0.00088674772996455431,0.032164692878723145,0.0022058072499930859, 
  /* [9][2][][] */ 0.0048750303685665131,0.036817021667957306,-0.036037694662809372,-0.037325259298086166,0.01607796736061573,-0.087363883852958679,0.010371524840593338,0.0028610043227672577,0.24747899174690247,-0.048350244760513306,0.025819407775998116,0.0088358605280518532,-0.078702390193939209,0.024458946660161018,0.079251259565353394,-0.0097502106800675392, 0.0093982471153140068,0.10289029777050018,-0.019273951649665833,-0.065233156085014343,0.015345594845712185,-0.006732642650604248,0.014979010447859764,0.022381940856575966,0.23666252195835114,-0.328969806432724,0.0012021741131320596,-0.00060174398822709918,-0.3399566113948822,0.0036150438245385885,0.13263444602489471,0.033764004707336426, -0.0058870832435786724,0.19789750874042511,-0.0025856844149529934,-0.041771981865167618,0.025677751749753952,0.082808881998062134,-0.0062950844876468182,0.023022383451461792,0.22545938193798065,-0.17313924431800842,-0.0036605061031877995,-0.0009071316453628242,-0.32315123081207275,0.029947647824883461,0.078971192240715027,0.017070673406124115, 
  /* [10][0][][] */ 0.096691153943538666,-0.1952853798866272,0.080971419811248779,0.0022525545209646225,0.17585714161396027,0.096496567130088806,0.13257354497909546,-0.12963792681694031,-0.04127981886267662,0.092625804245471954,0.10956315696239471,0.04837431013584137,-0.18863850831985474,0.096656188368797302,0.091720491647720337,0.018572410568594933, -0.092242956161499023,-0.31163471937179565,-0.022549012675881386,0.1759711354970932,0.19891412556171417,0.089267715811729431,0.577800452709198,-0.30379658937454224,-0.27930447459220886,-0.0048317965120077133,0.074897192418575287,0.70514869689941406,-0.34039852023124695,-0.23653584718704224,0.013996873050928116,-0.087033078074455261, 0.077088020741939545,-0.059710469096899033,0.030823208391666412,0.0015170243568718433,-0.10452965646982193,0.033789906650781631,0.019265087321400642,-0.077165693044662476,-0.095015861093997955,0.033450599759817123,0.017149370163679123,0.073974333703517914,-0.011560503393411636,0.001480323844589293,-0.012748374603688717,0.018405340611934662, 
  /* [10][1][][] */ -0.10270816087722778,-0.025094226002693176,0.0012588876998052001,0.027824502438306808,0.35735940933227539,-0.096894793212413788,0.13955160975456238,0.13831290602684021,-0.0032839870546013117,-0.034961435943841934,0.011845766566693783,-0.048337113112211227,-0.031373880803585052,-0.32935532927513123,-0.022979078814387321,-0.28620690107345581, -0.73115569353103638,0.18208587169647217,-0.035864070057868958,-0.0040528178215026855,0.098119102418422699,-0.15761527419090271,-0.12963834404945374,0.29324460029602051,0.3981158435344696,0.0080208098515868187,-0.15185075998306274,0.29233711957931519,0.29112827777862549,-0.45007851719856262,-0.0065375850535929203,-0.052833579480648041, -0.072188921272754669,0.029146699234843254,-0.058925971388816833,-0.072525404393672943,-0.10054858773946762,-0.075692504644393921,-0.13718484342098236,0.051183529198169708,0.0467258021235466,-0.014577003195881844,-0.065475396811962128,-0.24842864274978638,0.041413206607103348,0.013125891797244549,-0.029451260343194008,-0.077616952359676361, 
  /* [10][2][][] */ 0.010777522809803486,0.089573219418525696,0.016991181299090385,0.022205313667654991,0.014429125003516674,-0.0036248064134269953,0.017731599509716034,-0.014751494862139225,0.11852332204580307,0.059161990880966187,0.01788455992937088,-0.00012795510701835155,0.061428423970937729,-0.041343916207551956,0.012477160431444645,-0.14423400163650513, -0.058226242661476135,0.055638156831264496,0.0019590526353567839,-0.018690656870603561,-0.059463102370500565,0.061390969902276993,-0.072237528860569,-0.028335507959127426,-0.038797099143266678,-0.011904802173376083,0.04721185564994812,-0.069478027522563934,-0.0034795908723026514,0.092205114662647247,-0.02666669525206089,-0.065595656633377075, 0.14552757143974304,0.11466757953166962,0.0027092914097011089,0.00029529462335631251,0.0016537526389583945,0.061761971563100815,0.027371780946850777,-0.0085958531126379967,-0.093392148613929749,-0.060446981340646744,0.023539574816823006,-0.0038424532394856215,0.025836719200015068,0.045258127152919769,0.027554376050829887,-0.046294502913951874, 
  /* [11][0][][] */ -0.083445079624652863,0.06651557981967926,-0.097118735313415527,0.073969259858131409,-0.040321100503206253,0.0023460669908672571,0.03209417313337326,0.10284525901079178,0.12761327624320984,0.044215824455022812,0.018243864178657532,-0.11832816153764725,0.10447912663221359,0.030998235568404198,-0.072815604507923126,0.010329031385481358, 0.048185430467128754,-0.042796872556209564,0.05346410721540451,-0.067382611334323883,-0.071180127561092377,0.039505980908870697,-0.027053888887166977,-0.011996709741652012,-0.020575441420078278,-0.051740575581789017,0.023785511031746864,0.097143769264221191,-0.075092531740665436,-0.024324020370841026,0.014530107378959656,-0.033008616417646408, -0.028395259752869606,0.0044076205231249332,0.028321376070380211,-0.021803375333547592,0.082323089241981506,0.0098980152979493141,0.031069377437233925,-0.11369744688272476,-0.12789419293403625,-0.06272520124912262,0.035985536873340607,-0.032478049397468567,-0.041619013994932175,0.062494978308677673,0.0030598656740039587,-0.093679256737232208, 
  /* [11][1][][] */ -0.25766569375991821,0.062684781849384308,-0.19447964429855347,0.22189933061599731,0.11837921291589737,0.048505064100027084,0.20191481709480286,0.021135982125997543,-0.10390684008598328,0.028203153982758522,-0.39362552762031555,-0.071539126336574554,0.064992152154445648,0.13925801217556,-0.08959776908159256,0.034641098231077194, 0.39871257543563843,-0.00094510742928832769,0.17810849845409393,-0.12494221329689026,-0.2211139053106308,0.0136048449203372,-0.1657480001449585,-0.082671292126178741,-0.081144407391548157,-0.081312395632266998,-0.25381430983543396,0.32895258069038391,-0.098682425916194916,-0.11677385121583939,0.062160741537809372,-0.19419406354427338, -0.050809364765882492,-0.084699831902980804,0.02390017919242382,-0.034893840551376343,0.09674159437417984,-0.060526490211486816,-0.014085090719163418,0.00045158818829804659,0.033161208033561707,0.043714504688978195,-0.0061712078750133514,-0.11138193309307098,-0.054693330079317093,0.0011273330310359597,0.0059621250256896019,-0.078451119363307953, 
  /* [11][2][][] */ -0.030052639544010162,0.005123247392475605,-0.044263202697038651,0.054751858115196228,-0.0592319555580616,0.023167099803686142,0.023085948079824448,-0.090433090925216675,0.007081084419041872,0.047255638986825943,-0.075351238250732422,-0.026901518926024437,0.0056725144386291504,0.15699575841426849,-0.046355511993169785,0.048567593097686768, 0.24189023673534393,0.0075306105427443981,0.051536928862333298,-0.093863628804683685,0.094358041882514954,-0.034870240837335587,-0.09191478043794632,-0.043833173811435699,0.028550302609801292,0.012149028480052948,-0.025588387623429298,0.021862275898456573,0.028910672292113304,-0.2565726637840271,0.036069720983505249,-0.01835569366812706, -0.15990859270095825,-0.067974425852298737,-0.030428593978285789,0.056167423725128174,0.060972150415182114,-0.044825226068496704,0.048878710716962814,0.066164761781692505,-0.046883199363946915,-0.029379036277532578,0.19172754883766174,-0.05038755014538765,-0.0080798501148819923,0.061301246285438538,-0.023569541051983833,-0.0016450504772365093, 
  /* [12][0][][] */ -0.026622859761118889,-0.070174232125282288,0.085033595561981201,0.030774326995015144,0.012688156217336655,0.014181669801473618,-0.050613515079021454,0.013840660452842712,-0.071133352816104889,-0.12805481255054474,-0.023501396179199219,0.033986683934926987,0.021256811916828156,-0.028890715911984444,0.0055009950883686543,0.026384655386209488, -0.00058630248531699181,-0.029657308012247086,0.11538201570510864,0.045688439160585403,-0.012747881934046745,0.0069021079689264297,-0.016935966908931732,0.049477938562631607,0.06058051809668541,0.28715243935585022,0.053522054105997086,0.0016356955748051405,-0.024946659803390503,-0.024088319391012192,0.021673906594514847,0.065384641289710999, -0.039931703358888626,-0.16010110080242157,-0.027252336964011192,0.060998216271400452,-0.012527910992503166,0.014247250743210316,0.014049873687326908,-0.052543506026268005,-0.020921392366290092,0.0080724852159619331,-0.0033076039981096983,-0.040477707982063293,-0.038342919200658798,-0.0081984438002109528,0.030081748962402344,0.024870587512850761, 
  /* [12][1][][] */ 0.0096592921763658524,0.11699365079402924,0.057950802147388458,-0.019995462149381638,-0.047971129417419434,-0.0012373237404972315,-0.0037056498695164919,0.022270267829298973,0.010904435068368912,0.10595042258501053,-0.0013965717516839504,-0.015276873484253883,0.0066046835854649544,-0.030036583542823792,-0.073874928057193756,-0.080608323216438293, 0.014267772436141968,0.2850857675075531,0.099828265607357025,0.0029953527264297009,-0.11542896181344986,-0.0039741583168506622,0.061165347695350647,0.050879582762718201,0.23479069769382477,0.58119380474090576,0.058801550418138504,0.027021540328860283,-0.013554706238210201,-0.036748260259628296,-0.044085800647735596,0.046438694000244141, 0.0069556916132569313,-0.015390576794743538,-0.013019260950386524,0.039546221494674683,-0.062386371195316315,0.025888260453939438,0.013727708719670773,-0.0077424738556146622,0.078704684972763062,0.18891620635986328,0.0049683977849781513,-0.010073661804199219,-0.058875285089015961,0.019408190622925758,-0.00040053180418908596,-0.0015248708659783006, 
  /* [12][2][][] */ -0.060583095997571945,-0.054295279085636139,-0.070530101656913757,0.013447437435388565,-0.024441083893179893,-0.02990330196917057,-0.030683822929859161,-0.0026091402396559715,-0.02773495577275753,-0.16518038511276245,-0.030275583267211914,-0.010256415233016014,0.041584733873605728,-0.020381961017847061,-0.042463347315788269,-0.053778789937496185, 0.010634219273924828,0.12502934038639069,-0.01968858391046524,-0.0070446166209876537,-0.10934723913669586,-0.018924495205283165,0.039461180567741394,-0.0034483596682548523,0.13413147628307343,0.064379602670669556,0.015998052433133125,0.02739269845187664,0.073140770196914673,0.027001429349184036,0.0026603164151310921,-0.10037043690681458, 0.0015989998355507851,-0.086103349924087524,-0.070338167250156403,0.014808985404670238,-0.073304660618305206,0.018896261230111122,0.0021134375128895044,0.016209011897444725,0.0086004743352532387,-0.15206800401210785,-0.011442776769399643,-0.027751849964261055,0.016840104013681412,-0.022947313264012337,0.0029719776939600706,-0.076325021684169769, 
  /* [13][0][][] */ -0.0028626089915633202,0.17662651836872101,-0.0042357034981250763,-0.023206254467368126,0.0077383029274642467,0.063098423182964325,0.010959980078041553,0.015764337033033371,-0.060848947614431381,0.21104663610458374,0.008475571870803833,-0.0023420189972966909,-0.036372046917676926,0.0023644741158932447,-0.16086025536060333,-0.029909821227192879, 0.0064030978828668594,0.42148908972740173,0.0016182047547772527,-0.0097706625238060951,-0.015530193224549294,0.059698924422264099,-0.0014167418703436852,-0.00026751984842121601,-0.23651263117790222,0.57981389760971069,-0.0078021674416959286,0.0061899712309241295,-0.14296112954616547,-0.016126705333590508,-0.3355521559715271,-0.01787148043513298, 0.01040166337043047,0.15783028304576874,0.0032404595986008644,0.0076912287622690201,-0.004816160537302494,0.057426340878009796,-0.008249226026237011,-0.00035972383921034634,-0.16754569113254547,0.30563279986381531,0.012383628636598587,-0.00045058096293359995,-0.053416285663843155,0.0038571816403418779,-0.1560465395450592,-0.0099308304488658905, 
  /* [13][1][][] */ -0.014844909310340881,0.078421600162982941,-0.0024761115200817585,0.035587165504693985,0.0083319330587983131,-0.0023318005260080099,-0.0006826242315582931,0.0085199614986777306,0.098070986568927765,-0.063235215842723846,0.0040717236697673798,0.0034643108956515789,-0.11379478126764297,-0.014886772260069847,0.10664775222539902,0.0077795330435037613, -0.021883603185415268,-0.01353510282933712,-0.0037929818499833345,0.042157746851444244,-0.0079305646941065788,-0.0050468840636312962,0.0056826132349669933,-0.0043723033741116524,0.017614148557186127,-0.042951341718435287,-0.010244008153676987,-0.005512624979019165,0.039794929325580597,-0.0086821671575307846,0.07677796483039856,-0.025764085352420807, 0.0051064970903098583,-0.13601097464561462,0.0080717634409666061,0.023690707981586456,0.011213247664272785,0.016093926504254341,-0.0025052493438124657,0.018352456390857697,-0.076675496995449066,0.01029638946056366,-0.015836091712117195,0.016321541741490364,0.12723737955093384,-0.0034330314956605434,0.0045621241442859173,0.008690287359058857, 
  /* [13][2][][] */ -0.0055269193835556507,-0.16428093612194061,-0.022711975499987602,0.027580589056015015,0.01371445506811142,-0.059814117848873138,0.0024819385726004839,-0.0018888226477429271,0.14723284542560577,-0.27494129538536072,0.0032831176649779081,0.0025877226144075394,-0.00073487259214743972,-0.010587177239358425,0.16655926406383514,0.0083195334300398827, -0.0049264072440564632,-0.36750954389572144,0.005122368223965168,0.032503493130207062,0.0024299414362758398,-0.063332363963127136,-0.0086152264848351479,0.0027078429702669382,0.20864866673946381,-0.51974278688430786,-0.004932258278131485,-0.0021515735425055027,0.14205795526504517,0.0033409467432647943,0.23716486990451813,-0.0036162997130304575, -0.002594292163848877,-0.13050490617752075,-0.014047769829630852,0.0082142092287540436,0.0020837404299527407,-0.05047278106212616,-0.0032403264194726944,0.003869995940476656,0.031714502722024918,-0.18702954053878784,-0.0027992317918688059,-0.0079360548406839371,0.085869759321212769,0.0010524900862947106,0.023940334096550941,-0.0017810137942433357, 
  /* [14][0][][] */ -0.013044588267803192,-0.15207535028457642,-0.00067202869104221463,0.18584248423576355,0.045500017702579498,0.0069773118011653423,0.25914609432220459,-0.091596350073814392,-0.069187626242637634,0.0094340816140174866,0.029929665848612785,0.052582833915948868,-0.17952704429626465,-0.087652243673801422,0.0027142299804836512,0.057345975190401077, -0.12599442899227142,0.29216435551643372,0.10936758667230606,-0.037215132266283035,-0.16032500565052032,-0.058176662772893906,-0.25867921113967896,0.22964556515216827,0.053884748369455338,-0.072110779583454132,-0.22651974856853485,0.56802630424499512,0.35482120513916016,-0.093072980642318726,-0.043944515287876129,0.005228790920227766, 0.049336135387420654,-0.072930604219436646,-0.013623402453958988,-0.08979632705450058,0.07582496851682663,-0.014558515511453152,0.0017267764778807759,-0.0084832748398184776,0.12848713994026184,0.059682149440050125,-0.015733825042843819,-0.50016933679580688,-0.10859359800815582,0.056565247476100922,-0.014878125861287117,-0.0026115588843822479, 
  /* [14][1][][] */ -0.043294508010149002,0.23416322469711304,-0.013872929848730564,-0.12872809171676636,0.067726261913776398,-0.065408401191234589,0.074644118547439575,0.1268533319234848,0.10985042899847031,-0.051828321069478989,-0.0031926953233778477,-0.0015299742808565497,0.10167416930198669,-0.32899752259254456,0.067125178873538971,-0.10969027876853943, -0.040908090770244598,-0.36810153722763062,-0.012361555360257626,-0.0092265922576189041,0.11825059354305267,0.12859530746936798,-0.25073277950286865,-0.30899038910865784,-0.14634688198566437,-0.045402556657791138,0.32460412383079529,-0.75488924980163574,-0.3167005181312561,1.0523968935012817,0.0093321437016129494,0.35628733038902283, -0.18815745413303375,0.05808662623167038,-0.0029478655196726322,0.076478809118270874,-0.032482698559761047,0.029406102374196053,0.012659715488553047,0.054984226822853088,0.0034580151550471783,-0.01317655760794878,0.028465082868933678,0.49698543548583984,0.053507566452026367,-0.13622140884399414,-0.06444878876209259,-0.10985206067562103, 
  /* [14][2][][] */ -0.032913673669099808,-0.00092255591880530119,-0.05790092796087265,-0.01352449506521225,-0.15346859395503998,-0.0072323400527238846,-0.0099328942596912384,0.017804592847824097,-0.014477885328233242,0.01241186261177063,-0.0032057494390755892,-0.0034415374975651503,0.017373774200677872,0.16303384304046631,0.0032912958413362503,0.00751528050750494, 0.26242294907569885,-0.028094451874494553,0.0006416138494387269,-0.063731417059898376,0.075576484203338623,-0.046496964991092682,0.068270720541477203,0.022003516554832458,0.051844589412212372,0.042290475219488144,-0.081236414611339569,-0.0060021011158823967,-0.031476974487304688,-0.35708972811698914,0.057353340089321136,-0.10181348025798798, -0.11502370238304138,-0.048635531216859818,-0.020807415246963501,0.031182155013084412,-0.026711465790867805,0.029167870059609413,-0.010191952809691429,-0.0045013106428086758,0.017707580700516701,0.017180763185024261,-0.0022484117653220892,0.028211545199155807,-0.011513405479490757,0.09815400093793869,0.034043610095977783,0.031948234885931015, 
  /* [15][0][][] */ -0.060517266392707825,-0.030756641179323196,-0.066223874688148499,0.22171217203140259,0.054384432733058929,0.066614396870136261,0.052630718797445297,-0.12476333230733871,-0.044295106083154678,-0.077241256833076477,0.053130887448787689,0.039817892014980316,-0.10967593640089035,-0.0081016393378376961,0.00074827962089329958,0.077959276735782623, 0.091766826808452606,0.10040493309497833,-0.15304677188396454,0.29420387744903564,0.23723529279232025,0.15570804476737976,0.22371485829353333,-0.30748724937438965,-0.41481277346611023,-0.37792608141899109,0.038660354912281036,0.26644638180732727,-0.066946789622306824,0.11528711766004562,-0.028997449204325676,-0.024836050346493721, 0.051741249859333038,0.092474959790706635,0.02280438132584095,0.11029120534658432,-0.0098857767879962921,0.057356931269168854,0.020305590704083443,0.0072980793192982674,-0.25413274765014648,-0.18318988382816315,-0.026734469458460808,0.050965681672096252,0.071043215692043304,0.010882060974836349,-0.030566396191716194,-0.060514621436595917, 
  /* [15][1][][] */ 0.028988834470510483,0.097247399389743805,0.005445295013487339,-0.14415772259235382,-0.18759329617023468,-0.022942060604691505,-0.0078846663236618042,-0.10550159215927124,0.043729048222303391,-0.045519683510065079,0.013858380727469921,-0.046528659760951996,0.074167445302009583,0.0022826201748102903,-0.018302584066987038,-0.12675091624259949, 0.1663602739572525,-0.11490438878536224,0.14034491777420044,-0.19805602729320526,-0.14523428678512573,-0.00015663198428228498,-0.098479419946670532,-0.33059811592102051,-0.03934117779135704,0.0079502016305923462,-0.022826530039310455,-0.16108439862728119,-0.059575743973255157,0.034346863627433777,-0.034198377281427383,0.076074361801147461, 0.017889652401208878,-0.049482874572277069,0.032257921993732452,-0.0024826775770634413,-0.012073558755218983,0.022463861852884293,0.023663749918341637,0.0045625511556863785,0.0032878147903829813,0.032603330910205841,0.024195939302444458,-0.022718431428074837,0.061352912336587906,0.043570686131715775,-0.040726996958255768,0.029187383130192757, 
  /* [15][2][][] */ -0.038421895354986191,-0.089252248406410217,0.040510024875402451,-0.10823883861303329,0.031982477754354477,-0.096615202724933624,-0.046735949814319611,0.032385550439357758,0.11008711904287338,0.14222051203250885,-0.077166229486465454,-0.0038409573026001453,-0.013240529224276543,-0.026149122044444084,0.032302152365446091,-0.12560226023197174, -0.035876315087080002,-0.20043392479419708,-0.019175911322236061,-0.13881276547908783,-0.04444633424282074,-0.1037391871213913,-0.033647239208221436,-0.037698879837989807,0.26117321848869324,0.35682541131973267,0.00018741466919891536,-0.00870539341121912,-0.089243702590465546,-0.026988888159394264,0.016128405928611755,-0.09422321617603302, -0.02110309898853302,-0.18133455514907837,0.00028493636636994779,-0.071240223944187164,0.01622803695499897,-0.059427868574857712,-0.0004321867018006742,0.040260262787342072,0.11664381623268127,0.16273926198482513,-0.04262237623333931,-0.014585986733436584,-0.088523775339126587,0.0080018164590001106,0.049351014196872711,-0.041240103542804718, 
  /* [16][0][][] */ -0.013335805386304855,0.12292256951332092,0.036304067820310593,-0.011374050751328468,-0.045504026114940643,-0.018141742795705795,0.06097099557518959,0.10635194927453995,-0.021328160539269447,-0.058478638529777527,-0.13935261964797974,0.0029670377261936665,0.084319964051246643,0.033778727054595947,0.023456593975424767,-0.0668930783867836, -0.049598097801208496,-0.19913533329963684,0.03395482525229454,-0.12973536550998688,-0.044135615229606628,-0.059408389031887054,-0.17261570692062378,0.010050137527287006,0.070000253617763519,0.127728670835495,0.2180926650762558,-0.082291699945926666,-0.13485141098499298,-0.010958189144730568,0.03082609549164772,0.11596471071243286, -0.023832468315958977,0.13259181380271912,-0.042721934616565704,0.078322790563106537,0.047048028558492661,0.0088809961453080177,0.22418452799320221,-0.13638143241405487,-0.10500574856996536,-0.11545327305793762,-0.033379029482603073,0.0090597718954086304,0.10265395045280457,0.091002434492111206,-0.0018442367436364293,-0.11462833732366562, 
  /* [16][1][][] */ -0.0068912249989807606,-0.086012698709964752,-0.075271859765052795,0.10473456978797913,0.01194499246776104,0.039026115089654922,0.20696760714054108,0.08135753870010376,-0.11798384040594101,-0.006761529017239809,-0.096541993319988251,-0.088152460753917694,-0.12819021940231323,0.19216766953468323,-0.041781332343816757,-0.046368815004825592, 0.10527178645133972,0.2318287193775177,0.03791472315788269,-0.1666598916053772,0.00041206416790373623,-0.065632559359073639,-0.21371060609817505,0.17491362988948822,0.10215478390455246,-0.075842678546905518,-0.20052577555179596,0.30972853302955627,0.20459403097629547,-0.37646344304084778,0.032732684165239334,-0.072392508387565613, -0.14268015325069427,-0.20043131709098816,-0.01983092725276947,0.052130360156297684,0.063726097345352173,0.023095091804862022,0.10589278489351273,-0.21577474474906921,0.083570092916488647,0.1240382120013237,0.36209410429000854,-0.24986313283443451,-0.13514748215675354,0.30495896935462952,-0.013948879204690456,0.19978424906730652, 
  /* [16][2][][] */ -0.070248432457447052,-0.092534400522708893,-0.011537183076143265,-0.039882753044366837,-0.07115674763917923,-0.018014023080468178,-0.030404731631278992,-0.052406881004571915,0.021130349487066269,0.044288907200098038,0.15164616703987122,-0.0082421014085412025,-0.048482142388820648,-0.028063956648111343,-0.015030954964458942,0.012734959833323956, 0.20633359253406525,0.10205143690109253,-0.022642863914370537,0.060862254351377487,0.10208485275506973,0.034384362399578094,0.17752702534198761,0.18019977211952209,-0.19977788627147675,-0.19616267085075378,-0.19445294141769409,-0.039723336696624756,0.027348533272743225,0.17718310654163361,-0.024940809234976768,-0.20320385694503784, -0.11515646427869797,-0.045396953821182251,0.010564573109149933,-0.066275283694267273,-0.043663471937179565,-0.056010153144598007,-0.13948915898799896,-0.15219493210315704,0.14865079522132874,0.13304920494556427,0.032612666487693787,0.062673814594745636,0.029882343485951424,-0.070536546409130096,0.0047961091622710228,0.09236869215965271, 
  /* [17][0][][] */ 0.011482946574687958,0.0024019051343202591,0.065310172736644745,-0.089091040194034576,-0.023592311888933182,-0.041512567549943924,0.0020942299161106348,0.0024540435988456011,0.033918257802724838,-0.013874256983399391,-0.096136212348937988,-0.024922760203480721,0.062502384185791016,-0.025258274748921394,-0.1327504962682724,-0.10449559986591339, -0.045927878469228745,-0.16793014109134674,-0.12889485061168671,-0.00053183577256277204,-0.066502198576927185,0.057995505630970001,0.041919730603694916,-0.14084771275520325,-0.17716865241527557,-0.00033078735577873886,0.075685843825340271,0.041055016219615936,-0.14955581724643707,-0.026313791051506996,-0.012332899495959282,-0.25883564352989197, -0.063397608697414398,0.080345973372459412,-0.070952750742435455,-0.077574208378791809,0.0033377227373421192,-0.039353709667921066,-0.029169116169214249,0.029688052833080292,-0.11521340161561966,-0.11497651785612106,-0.0032130265608429909,-0.043095856904983521,-0.0092582851648330688,-0.0015438453992828727,-0.078778922557830811,-0.007813584990799427, 
  /* [17][1][][] */ 0.00099571316968649626,0.022210629656910896,0.092252060770988464,-0.050830677151679993,-0.032947305589914322,0.029599698260426521,0.053779888898134232,0.10554573684930801,-0.16544584929943085,-0.12212121486663818,-0.14358243346214294,-0.013843422755599022,0.028903132304549217,0.011074937880039215,-0.015465917997062206,0.12611541152000427, 0.45689457654953003,-0.066789776086807251,0.40218335390090942,-0.060487899929285049,0.33734798431396484,0.003800111822783947,0.14505377411842346,0.15928427875041962,0.47509753704071045,0.15892240405082703,0.21893914043903351,0.35074925422668457,0.21275688707828522,0.28863263130187988,0.19635759294033051,0.49889308214187622, -0.12374944984912872,0.027239920571446419,0.052855979651212692,0.03558991476893425,-0.13489298522472382,0.031449325382709503,0.031070509925484657,0.023648440837860107,0.117218978703022,0.13783855736255646,-0.041279338300228119,-0.11058589071035385,0.064397446811199188,-0.051669448614120483,-0.0086504174396395683,0.046971496194601059, 
  /* [17][2][][] */ -0.047750234603881836,-0.097296752035617828,-0.13605712354183197,0.0053852195851504803,-0.054164290428161621,0.062010228633880615,0.0020888987928628922,-0.014451060444116592,-0.055852785706520081,-0.02703196182847023,0.029625235125422478,0.00081108545418828726,-0.11583999544382095,-0.087748460471630096,-0.032785531133413315,0.060446217656135559, -0.028013415634632111,0.080210931599140167,-0.036791719496250153,-0.023719033226370811,-0.035667866468429565,0.1039411872625351,0.018534399569034576,-0.051883086562156677,0.13553288578987122,-0.043263614177703857,0.011747484095394611,-0.052587978541851044,0.010078476741909981,-0.0032643531449139118,0.081134185194969177,-0.18557663261890411, -0.010603832080960274,-0.025714235380291939,0.063695460557937622,0.012282470241189003,-0.041508771479129791,0.039588708430528641,0.00028017241857014596,-0.025499641895294189,0.054135758429765701,-0.041626881808042526,-0.003335920162498951,0.008142826147377491,0.018868954852223396,-0.02297569066286087,-0.0089190304279327393,-0.034517589956521988, 
  /* [18][0][][] */ 0.022671971470117569,-0.02881060354411602,0.070407375693321228,-0.079038806259632111,-0.22548869252204895,-0.030957018956542015,-0.13536976277828217,0.14014768600463867,0.012625887989997864,0.0018846002640202641,0.0879034623503685,-0.068180404603481293,0.0046965098008513451,-0.0026692603714764118,-0.035362463444471359,-0.086393371224403381, -0.30723804235458374,0.12426456809043884,0.029413856565952301,0.061481669545173645,0.045311592519283295,-0.03776252269744873,-0.076374448835849762,0.29602286219596863,0.31867480278015137,0.072497613728046417,0.072438687086105347,-0.37094110250473022,0.21917077898979187,-0.32623755931854248,-0.04862247034907341,0.07174324244260788, -0.25244441628456116,0.019099028781056404,-0.06983967125415802,0.10337796807289124,-0.055093586444854736,-0.0017841518856585026,0.053092069923877716,0.078517317771911621,0.072721198201179504,-0.031661771237850189,0.043036434799432755,0.14380060136318207,0.013078645803034306,-0.035029083490371704,-0.00033929801429621875,-0.062948264181613922, 
  /* [18][1][][] */ -0.1331404447555542,-0.06875959038734436,-0.10227372497320175,0.13080458343029022,-0.073910564184188843,-0.029420757666230202,0.17636018991470337,-0.049054998904466629,-0.030194573104381561,0.015000038780272007,-0.1465136855840683,0.018439125269651413,-0.066772855818271637,-0.034692618995904922,-0.058154236525297165,0.036275118589401245, 0.20576527714729309,-0.14705781638622284,-0.020575491711497307,0.025316299870610237,-0.25916364789009094,0.024596972391009331,0.081838548183441162,-0.28286337852478027,-0.41874703764915466,-0.26742652058601379,-0.075078554451465607,0.28792732954025269,-0.1992211639881134,0.32906070351600647,-0.056487273424863815,0.054133526980876923, 0.3454602062702179,-0.095155201852321625,0.061520453542470932,-0.066701516509056091,-0.07422204315662384,-0.024192210286855698,0.05334167554974556,-0.11086847633123398,-0.12813101708889008,-0.091994941234588623,-0.019170202314853668,-0.11336831003427505,-0.10290668904781342,0.054640792310237885,-0.058340884745121002,-0.020387506112456322, 
  /* [18][2][][] */ 0.073911368846893311,0.070271097123622894,0.0015013086376711726,-0.029245251789689064,-0.0011874949559569359,0.0019659455865621567,-0.013490770943462849,-0.062789678573608398,0.053429335355758667,0.068171672523021698,0.055505231022834778,0.060971051454544067,0.023373745381832123,0.076692789793014526,0.09443867951631546,-0.10339371860027313, 0.09686385840177536,0.088106036186218262,0.006093799602240324,-0.0017874588957056403,0.075533784925937653,0.01557521615177393,0.0064356937073171139,-0.015391920693218708,0.10969142615795135,0.092585690319538116,0.009464985691010952,-0.063024580478668213,0.087434440851211548,0.037739105522632599,0.068080738186836243,-0.11942290514707565, -0.037443865090608597,0.03934222087264061,0.012729889713227749,-0.0041641895659267902,0.011734300293028355,0.03510693833231926,0.010729138739407063,0.054976027458906174,0.039317157119512558,0.071388155221939087,0.016122346743941307,0.015036576427519321,0.036117754876613617,0.057630959898233414,0.068646438419818878,-0.020409872755408287, 
  /* [19][0][][] */ -0.065892711281776428,-0.04086974635720253,0.052064843475818634,-0.071761980652809143,-0.44567582011222839,-0.061233051121234894,-0.16491992771625519,0.012313268147408962,0.057027474045753479,0.0076393261551856995,0.0059681246057152748,0.28824329376220703,-0.023668630048632622,0.22300414741039276,0.018235567957162857,-0.013786232098937035, -0.38056102395057678,-0.19235289096832275,-0.24503466486930847,0.057751990854740143,-0.024175073951482773,0.0034179501235485077,-0.035258900374174118,-0.090769678354263306,-0.075969822704792023,0.032455749809741974,0.092507623136043549,0.32272517681121826,-0.22338955104351044,0.20914284884929657,-0.015920154750347137,-0.12332909554243088, -0.11700766533613205,0.016355300322175026,0.0013802583562210202,-0.06226324662566185,-0.1278405636548996,-0.0068432358093559742,-0.019678575918078423,0.093524709343910217,0.11294925212860107,0.097092829644680023,0.070067718625068665,-0.021439189091324806,0.057743772864341736,0.10535868257284164,-0.011912647634744644,-0.040037970989942551, 
  /* [19][1][][] */ -0.29668831825256348,0.060613721609115601,0.041844341903924942,-0.23062077164649963,-0.14170442521572113,-0.032739315181970596,-0.54025441408157349,-0.022431729361414909,0.002224229509010911,-0.0056178225204348564,0.0051477695815265179,0.34413072466850281,-0.043179746717214584,0.40265005826950073,0.012312939390540123,-0.040524069219827652, 0.15022876858711243,-0.041793711483478546,-0.15273255109786987,0.26297169923782349,0.53178942203521729,-0.057372335344552994,1.4739480018615723,-0.056657664477825165,-0.071009427309036255,-0.027942828834056854,-0.087021179497241974,-0.36023768782615662,-0.024230916053056717,-0.81713145971298218,-0.038310393691062927,-0.17749318480491638, 0.67698198556900024,0.089288718998432159,0.032334469258785248,-0.1675427258014679,0.26267874240875244,0.022027146071195602,0.20714299380779266,0.026300294324755669,0.0010128499707207084,-0.0027021684218198061,0.017976598814129829,-1.4400173425674438,0.085519276559352875,-0.0044276677072048187,-0.01068845484405756,-0.023587372153997421, 
  /* [19][2][][] */ -0.20857618749141693,-0.091642707586288452,0.020026080310344696,0.012478932738304138,-0.42591667175292969,0.0010092066368088126,-0.16960588097572327,-0.053455829620361328,-0.025817763060331345,0.058576140552759171,0.047809414565563202,0.2671302855014801,-0.10556002706289291,0.57262325286865234,-0.017724949866533279,-0.067905701696872711, -0.28646290302276611,0.045674141496419907,0.089557528495788574,-0.14435185492038727,0.14452847838401794,-0.026969950646162033,-0.15493029356002808,0.099768131971359253,0.16702111065387726,-0.024010462686419487,0.08825325220823288,0.60028010606765747,0.20159289240837097,-0.61414170265197754,0.031066501513123512,0.10770586878061295, 0.80524939298629761,0.056440308690071106,0.16042523086071014,-0.15935204923152924,-0.0112565653398633,0.10364741086959839,0.019328052178025246,-0.14239791035652161,-0.13787660002708435,-0.11050602793693542,-0.059100538492202759,-0.20868724584579468,-0.031300205737352371,-0.3115430474281311,0.020461093634366989,-0.024033579975366592, 
  /* [20][0][][] */ -0.022735482081770897,0.10414455831050873,0.013893754221498966,0.023404087871313095,-0.01700969971716404,0.006412020418792963,0.048880882561206818,0.038336090743541718,0.044906832277774811,-0.040823355317115784,-0.095050856471061707,-0.033175934106111526,0.06010853499174118,0.093742817640304565,0.046448685228824615,-0.075714059174060822, 0.055711641907691956,-0.29332876205444336,0.0046590231359004974,-0.048622123897075653,-0.11892091482877731,-0.037656903266906738,-0.16210457682609558,0.077117763459682465,-0.023214932531118393,0.01528546679764986,0.20814947783946991,-0.071064092218875885,-0.24681362509727478,-0.12870047986507416,-0.020736478269100189,0.068705230951309204, 0.0043221320956945419,0.19153615832328796,-0.0040082423947751522,-0.0027759189251810312,-0.15356045961380005,0.0025359881110489368,0.021794147789478302,-0.01911451667547226,0.046844217926263809,0.0045489161275327206,-0.0048407707363367081,0.25944137573242188,0.138724684715271,0.039045136421918869,0.014589236117899418,0.032021284103393555, 
  /* [20][1][][] */ -0.11478785425424576,0.14369148015975952,-0.08061816543340683,0.056549612432718277,0.040764849632978439,-0.0019490000559017062,0.16335389018058777,0.003859297139570117,-0.097122669219970703,-0.11666885763406754,-0.25329610705375671,-0.029308000579476357,-0.017033729702234268,0.33194518089294434,0.026747975498437881,-0.086076594889163971, -0.15729811787605286,-0.33049491047859192,0.0084019331261515617,-0.032336067408323288,-0.023028679192066193,-0.065563090145587921,-0.14302840828895569,-0.013240931555628777,0.19960831105709076,0.093041151762008667,0.45445114374160767,-0.26287004351615906,-0.16061979532241821,-0.35913887619972229,-0.016174884513020515,0.37780755758285522, 0.35891544818878174,0.13062815368175507,0.077991463243961334,-0.054090090095996857,-0.042548790574073792,0.04883740097284317,-0.050509054213762283,0.032890550792217255,-0.073491603136062622,-0.024238327518105507,-0.034045834094285965,0.26131013035774231,0.10310952365398407,-0.11241576075553894,0.013918827287852764,-0.11459477245807648, 
  /* [20][2][][] */ -0.0024868880864232779,0.071596845984458923,-0.0027126402128487825,-0.037402410060167313,0.029888797551393509,-0.026088733226060867,0.0063740862533450127,-0.046533018350601196,-0.069433592259883881,-0.055140849202871323,-0.1282583475112915,-0.0061035510152578354,-0.023476680740714073,0.18574032187461853,0.0015227582771331072,-0.059345953166484833, -0.22585906088352203,-0.091939657926559448,-0.044810250401496887,-0.0048345522955060005,-0.098269961774349213,-0.050515405833721161,-0.043727394193410873,-0.032890092581510544,0.070764631032943726,-0.0075109177269041538,0.1269184947013855,-0.013623705133795738,-0.041342731565237045,-0.15663523972034454,0.011450884863734245,0.072943702340126038, 0.27535134553909302,0.051295112818479538,0.025187039747834206,0.0061324317939579487,0.043806381523609161,0.035883590579032898,0.055429138243198395,0.038187343627214432,0.0095085529610514641,0.02096719853579998,0.015403307043015957,0.047215886414051056,0.027305884286761284,-0.0059754741378128529,0.043458886444568634,-0.027978911995887756, 
  /* [21][0][][] */ 0.061209004372358322,-0.049982927739620209,0.12948580086231232,-0.17160528898239136,-0.051807336509227753,-0.12482407689094543,-0.0065319836139678955,0.074348874390125275,0.10435596108436584,0.14731749892234802,-0.0060076573863625526,0.029242914170026779,-0.0042170039378106594,0.038837619125843048,0.044690374284982681,-0.031913232058286667, 0.025442337617278099,-0.13183678686618805,0.18059010803699493,-0.24383261799812317,-0.11567862331867218,-0.14929747581481934,-0.11267102509737015,0.30386397242546082,0.48651492595672607,0.44545069336891174,-0.00090991752222180367,-0.20188002288341522,0.099262483417987823,0.048070590943098068,-0.0028187120333313942,0.070057839155197144, 0.017164278775453568,-0.13937380909919739,0.060864865779876709,-0.055219568312168121,-0.022415347397327423,-0.095493599772453308,-0.0017612905940040946,0.010917526669800282,0.27366098761558533,0.29549708962440491,0.0081813698634505272,-0.045335713773965836,-0.068820573389530182,0.019095808267593384,0.022539688274264336,0.040259398519992828, 
  /* [21][1][][] */ -0.035830996930599213,-0.18024463951587677,-0.047667577862739563,0.14151127636432648,0.045638620853424072,0.020106932148337364,0.044712506234645844,0.076497718691825867,-0.1475004106760025,-0.057562306523323059,0.0068014650605618954,-0.011736822314560413,-0.14733812212944031,-0.039342973381280899,-0.044572286307811737,-0.063044846057891846, -0.14959809184074402,0.10544844716787338,-0.084700033068656921,0.18924213945865631,0.1189851313829422,0.042351655662059784,0.071456655859947205,0.31574955582618713,-0.064380466938018799,-0.12584167718887329,0.036913551390171051,0.1031014546751976,0.092618100345134735,-0.090598151087760925,-0.083183594048023224,-0.18689118325710297, -0.076355233788490295,0.028651861473917961,-0.057979993522167206,0.022951036691665649,-0.029862040653824806,0.025378363206982613,-0.012679564766585827,-0.014257119968533516,-0.16018825769424438,-0.099967025220394135,-0.0071540470235049725,0.047961048781871796,-0.088531240820884705,-0.055192820727825165,-0.053574800491333008,-0.09546913206577301, 
  /* [21][2][][] */ 0.011781614273786545,0.008847787044942379,-0.087191969156265259,0.048437055200338364,-0.058793585747480392,0.078524209558963776,0.023710208013653755,-0.0491209477186203,-0.13796804845333099,-0.11694686859846115,0.023322958499193192,-0.029546735808253288,-0.0044299722649157047,-0.031954441219568253,0.0068203555420041084,0.059822604060173035, 0.0076625258661806583,0.12217371165752411,-0.057796988636255264,0.058337818831205368,-0.072731971740722656,0.14850322902202606,0.04363115131855011,0.061929557472467422,-0.24226604402065277,-0.31977680325508118,-0.025723336264491081,0.013626103289425373,0.066249966621398926,0.0067379064857959747,-0.012811249122023582,-0.044458061456680298, 0.019386833533644676,0.16900385916233063,-0.037978991866111755,0.0060483925044536591,0.029490301385521889,0.072169728577136993,0.00374205457046628,-0.04217500239610672,-0.19076348841190338,-0.2137148529291153,0.012799486517906189,0.046151921153068542,0.08168821781873703,0.0059387125074863434,0.022888747975230217,0.045112848281860352, 
  /* [22][0][][] */ -0.010368595831096172,0.085330143570899963,0.0042928499169647694,-0.067693881690502167,-0.061483249068260193,0.016603680327534676,-0.014086222276091576,0.014060546644032001,0.0010608473094180226,0.01965540274977684,0.055056717246770859,-0.042631391435861588,-0.082397527992725372,0.0011493928031995893,0.0094294315204024315,-0.074884220957756042, 0.057638019323348999,0.03295242041349411,0.050802100449800491,-0.026872819289565086,0.010483068414032459,0.016315607354044914,0.0083260433748364449,0.061138756573200226,0.12279026955366135,-0.098209232091903687,-0.012938970699906349,0.044727936387062073,-0.076620332896709442,0.0091806091368198395,0.07584594190120697,0.0092268567532300949, 0.0050538256764411926,-0.022807477042078972,0.0073203369975090027,0.006580880843102932,0.071351237595081329,0.050964467227458954,-0.037329927086830139,-0.0013422522461041808,-0.031583182513713837,-0.024063020944595337,-0.032509677112102509,-0.0047354795970022678,0.037829384207725525,0.022303082048892975,-0.037295747548341751,0.039478909224271774, 
  /* [22][1][][] */ -0.020519949495792389,0.098054245114326477,0.014783709309995174,-0.050659667700529099,-0.032703164964914322,-0.00036924344021826982,0.030026782304048538,0.0096705164760351181,0.18092517554759979,-0.038619257509708405,0.013174748979508877,0.0063499147072434425,-0.058531772345304489,0.0083598708733916283,0.06743757426738739,-0.058297760784626007, 0.09038197249174118,0.037293754518032074,0.081227853894233704,-0.035493504256010056,0.046754788607358932,-0.011873610317707062,-0.031401712447404861,-2.224126183136832e-05,0.35941687226295471,-0.14802442491054535,-0.015671372413635254,0.013568958267569542,-0.085184618830680847,-0.0033599257003515959,0.13255497813224792,0.081170171499252319, -0.0077608916908502579,-0.017155593261122704,0.011412731371819973,0.0043536131270229816,0.099591977894306183,0.02394477091729641,-0.020227644592523575,0.030660577118396759,0.15565381944179535,-0.070018216967582703,-0.025713806971907616,-0.018439462408423424,0.027009120211005211,0.017469525337219238,0.0063578817062079906,0.091279521584510803, 
  /* [22][2][][] */ -0.030789950862526894,0.03676161915063858,0.019238254055380821,-0.0072432402521371841,-0.010957078076899052,0.030812112614512444,-0.0061690723523497581,-0.03287201002240181,-0.019228613004088402,0.031871389597654343,-0.0062660747207701206,-0.01565500907599926,0.024039957672357559,-0.010185417719185352,-0.05251004546880722,-0.01086333766579628, 0.020811060443520546,0.036964032799005508,0.038362480700016022,-0.011409550905227661,0.052506949752569199,0.018101049587130547,-0.0099396277219057083,-0.037028562277555466,0.13546591997146606,-0.04431648924946785,0.010363438166677952,-0.015445933677256107,-0.0083534102886915207,-0.018259327858686447,-0.017720784991979599,0.097264707088470459, -0.067577444016933441,-0.021373705938458443,-0.025567749515175819,-0.0052977488376200199,0.027608530595898628,0.050935350358486176,-0.0095940036699175835,-0.033452562987804413,-0.076505199074745178,0.00067745463456958532,-0.019799971953034401,-0.0088856127113103867,0.053315062075853348,-0.031620524823665619,-0.089198492467403412,0.050881460309028625, 
  /* [23][0][][] */ -0.096308201551437378,-0.01826908066868782,-0.044872134923934937,0.040830317884683609,0.08409978449344635,0.064495541155338287,0.12683694064617157,-0.061391532421112061,-0.0025571119040250778,-0.017400298267602921,-0.084258608520030975,0.060423117130994797,-0.072819575667381287,0.021183257922530174,0.025697503238916397,-0.013693781569600105, 0.32673680782318115,-0.021628463640809059,0.091193057596683502,-0.22233521938323975,-0.034065209329128265,0.0028367601335048676,-0.34696829319000244,0.057818349450826645,-0.011668174527585506,0.014583194628357887,-0.012159123085439205,-0.075758710503578186,-0.092029266059398651,0.21082212030887604,-0.015155029483139515,-0.038260985165834427, -0.023619974032044411,0.10652875155210495,-0.015436761081218719,0.0076706549152731895,-0.029019799083471298,-0.027566872537136078,-0.053313061594963074,0.11943305283784866,0.15118996798992157,0.060577400028705597,0.01062262337654829,-0.26548308134078979,0.14196754992008209,0.0096665387973189354,0.011457227170467377,-0.064723469316959381, 
  /* [23][1][][] */ 0.026297912001609802,-0.058163005858659744,-0.0053830668330192566,-0.0087195942178368568,-0.052105169743299484,-0.086145766079425812,-0.0074611757881939411,0.15823808312416077,0.076220937073230743,0.057030830532312393,0.11270388215780258,-0.12014893442392349,0.0074219969101250172,-0.30606237053871155,-0.084943048655986786,-0.057158757001161575, -0.86326140165328979,-0.058114860206842422,-0.15737903118133545,0.27790212631225586,0.15703608095645905,-0.0065306634642183781,0.55352747440338135,0.01999250240623951,-0.076771467924118042,-0.067669644951820374,0.069082736968994141,0.5136035680770874,0.028012743219733238,-0.17226816713809967,-0.052645277231931686,0.028457369655370712, 0.30286991596221924,-0.068477518856525421,0.072997435927391052,-0.048325803130865097,-0.14460441470146179,0.0073243398219347,-0.032174970954656601,-0.1507631242275238,-0.24729207158088684,-0.17657628655433655,-0.0046072155237197876,0.053961653262376785,-0.090396732091903687,0.063570611178874969,-0.04977026954293251,-0.0035404465161263943, 
